{"learner":{"attributes":{"scikit_learn":"{\"_estimator_type\": \"regressor\"}"},"feature_names":["volume","trade_count","vwap","rsi","boll","boll_ub","boll_lb","macd","macds","macdh","chop","ppo","ppos","ppoh","vr","cci","atr","mfi"],"feature_types":["float","float","float","float","float","float","float","float","float","float","float","float","float","float","float","float","float","float"],"gradient_booster":{"model":{"gbtree_model_param":{"num_parallel_tree":"1","num_trees":"500"},"iteration_indptr":[0,1,2,3,4,5,6,7,8,9,10,11,12,13,14,15,16,17,18,19,20,21,22,23,24,25,26,27,28,29,30,31,32,33,34,35,36,37,38,39,40,41,42,43,44,45,46,47,48,49,50,51,52,53,54,55,56,57,58,59,60,61,62,63,64,65,66,67,68,69,70,71,72,73,74,75,76,77,78,79,80,81,82,83,84,85,86,87,88,89,90,91,92,93,94,95,96,97,98,99,100,101,102,103,104,105,106,107,108,109,110,111,112,113,114,115,116,117,118,119,120,121,122,123,124,125,126,127,128,129,130,131,132,133,134,135,136,137,138,139,140,141,142,143,144,145,146,147,148,149,150,151,152,153,154,155,156,157,158,159,160,161,162,163,164,165,166,167,168,169,170,171,172,173,174,175,176,177,178,179,180,181,182,183,184,185,186,187,188,189,190,191,192,193,194,195,196,197,198,199,200,201,202,203,204,205,206,207,208,209,210,211,212,213,214,215,216,217,218,219,220,221,222,223,224,225,226,227,228,229,230,231,232,233,234,235,236,237,238,239,240,241,242,243,244,245,246,247,248,249,250,251,252,253,254,255,256,257,258,259,260,261,262,263,264,265,266,267,268,269,270,271,272,273,274,275,276,277,278,279,280,281,282,283,284,285,286,287,288,289,290,291,292,293,294,295,296,297,298,299,300,301,302,303,304,305,306,307,308,309,310,311,312,313,314,315,316,317,318,319,320,321,322,323,324,325,326,327,328,329,330,331,332,333,334,335,336,337,338,339,340,341,342,343,344,345,346,347,348,349,350,351,352,353,354,355,356,357,358,359,360,361,362,363,364,365,366,367,368,369,370,371,372,373,374,375,376,377,378,379,380,381,382,383,384,385,386,387,388,389,390,391,392,393,394,395,396,397,398,399,400,401,402,403,404,405,406,407,408,409,410,411,412,413,414,415,416,417,418,419,420,421,422,423,424,425,426,427,428,429,430,431,432,433,434,435,436,437,438,439,440,441,442,443,444,445,446,447,448,449,450,451,452,453,454,455,456,457,458,459,460,461,462,463,464,465,466,467,468,469,470,471,472,473,474,475,476,477,478,479,480,481,482,483,484,485,486,487,488,489,490,491,492,493,494,495,496,497,498,499,500],"tree_info":[0,0,0,0,0,0,0,0,0,0,0,0,0,0,0,0,0,0,0,0,0,0,0,0,0,0,0,0,0,0,0,0,0,0,0,0,0,0,0,0,0,0,0,0,0,0,0,0,0,0,0,0,0,0,0,0,0,0,0,0,0,0,0,0,0,0,0,0,0,0,0,0,0,0,0,0,0,0,0,0,0,0,0,0,0,0,0,0,0,0,0,0,0,0,0,0,0,0,0,0,0,0,0,0,0,0,0,0,0,0,0,0,0,0,0,0,0,0,0,0,0,0,0,0,0,0,0,0,0,0,0,0,0,0,0,0,0,0,0,0,0,0,0,0,0,0,0,0,0,0,0,0,0,0,0,0,0,0,0,0,0,0,0,0,0,0,0,0,0,0,0,0,0,0,0,0,0,0,0,0,0,0,0,0,0,0,0,0,0,0,0,0,0,0,0,0,0,0,0,0,0,0,0,0,0,0,0,0,0,0,0,0,0,0,0,0,0,0,0,0,0,0,0,0,0,0,0,0,0,0,0,0,0,0,0,0,0,0,0,0,0,0,0,0,0,0,0,0,0,0,0,0,0,0,0,0,0,0,0,0,0,0,0,0,0,0,0,0,0,0,0,0,0,0,0,0,0,0,0,0,0,0,0,0,0,0,0,0,0,0,0,0,0,0,0,0,0,0,0,0,0,0,0,0,0,0,0,0,0,0,0,0,0,0,0,0,0,0,0,0,0,0,0,0,0,0,0,0,0,0,0,0,0,0,0,0,0,0,0,0,0,0,0,0,0,0,0,0,0,0,0,0,0,0,0,0,0,0,0,0,0,0,0,0,0,0,0,0,0,0,0,0,0,0,0,0,0,0,0,0,0,0,0,0,0,0,0,0,0,0,0,0,0,0,0,0,0,0,0,0,0,0,0,0,0,0,0,0,0,0,0,0,0,0,0,0,0,0,0,0,0,0,0,0,0,0,0,0,0,0,0,0,0,0,0,0,0,0,0,0,0,0,0,0,0,0,0,0,0,0,0,0,0,0,0,0,0,0,0,0,0,0,0,0,0,0,0,0,0,0,0,0,0,0,0,0,0,0,0,0,0,0,0,0,0,0,0,0,0,0,0,0,0,0,0,0,0,0,0,0],"trees":[{"base_weights":[3.20703E-3,-6.609762E0,3.9649856E0,-8.563246E0,-3.0489573E0,1.5779686E0,8.280764E0,-9.960861E0,-7.328201E0,-4.753261E0,-2.3457565E0,2.889725E-1,3.3781624E0,6.261929E0,1.1275177E1,-1.1363683E1,-9.421026E0,-7.9839587E0,-6.5418115E0,-5.3548675E0,-4.1570244E0,-2.939987E0,-1.9232854E0,-3.5945278E-1,1.081172E0,2.46119E0,4.1706605E0,5.5134854E0,7.0971236E0,1.009258E1,1.2356588E1,-6.1538804E-1,-5.5238175E-1,-4.9181706E-1,-4.522055E-1,-4.126601E-1,-3.7808153E-1,-3.439709E-1,-3.1209832E-1,-2.7983543E-1,-2.4916497E-1,-2.1961255E-1,-1.9016942E-1,-1.6182874E-1,-1.3222508E-1,-1.0780783E-1,-8.050957E-2,-4.1181356E-2,-1.0233915E-3,3.3070993E-2,7.3740184E-2,1.0967127E-1,1.4782812E-1,1.860062E-1,2.258871E-1,2.6015922E-1,2.9565334E-1,3.388876E-1,3.8968274E-1,4.638481E-1,5.2860594E-1,5.9061384E-1,6.546552E-1],"categories":[],"categories_nodes":[],"categories_segments":[],"categories_sizes":[],"default_left":[0,0,0,0,0,0,0,0,0,0,0,0,0,0,0,0,0,0,0,0,0,0,0,0,0,0,0,0,0,0,0,0,0,0,0,0,0,0,0,0,0,0,0,0,0,0,0,0,0,0,0,0,0,0,0,0,0,0,0,0,0,0,0],"id":0,"left_children":[1,3,5,7,9,11,13,15,17,19,21,23,25,27,29,31,33,35,37,39,41,43,45,47,49,51,53,55,57,59,61,-1,-1,-1,-1,-1,-1,-1,-1,-1,-1,-1,-1,-1,-1,-1,-1,-1,-1,-1,-1,-1,-1,-1,-1,-1,-1,-1,-1,-1,-1,-1,-1],"loss_changes":[3.627504E6,3.6080075E5,8.9198175E5,5.774525E4,2.2014281E4,1.2936836E5,1.86334E5,1.1790875E4,9.119625E3,1.9028906E3,3.2609453E3,1.6689926E4,1.6894938E4,1.14750625E4,1.5753875E4,1.1651875E3,1.6879375E3,1.039875E3,7.763125E2,2.1185156E2,2.0789062E2,4.651211E2,5.512324E2,2.8113218E3,2.4153145E3,1.4243398E3,1.93425E3,1.1743125E3,1.8829688E3,2.223625E3,2.4435625E3,0E0,0E0,0E0,0E0,0E0,0E0,0E0,0E0,0E0,0E0,0E0,0E0,0E0,0E0,0E0,0E0,0E0,0E0,0E0,0E0,0E0,0E0,0E0,0E0,0E0,0E0,0E0,0E0,0E0,0E0,0E0,0E0],"parents":[2147483647,0,0,1,1,2,2,3,3,4,4,5,5,6,6,7,7,8,8,9,9,10,10,11,11,12,12,13,13,14,14,15,15,16,16,17,17,18,18,19,19,20,20,21,21,22,22,23,23,24,24,25,25,26,26,27,27,28,28,29,29,30,30],"right_children":[2,4,6,8,10,12,14,16,18,20,22,24,26,28,30,32,34,36,38,40,42,44,46,48,50,52,54,56,58,60,62,-1,-1,-1,-1,-1,-1,-1,-1,-1,-1,-1,-1,-1,-1,-1,-1,-1,-1,-1,-1,-1,-1,-1,-1,-1,-1,-1,-1,-1,-1,-1,-1],"split_conditions":[3.653336E1,3.2039974E1,4.2807323E1,2.9227741E1,3.430292E1,3.972E1,4.66E1,2.744226E1,3.0630972E1,3.317E1,3.544E1,3.825E1,4.1184017E1,4.4208294E1,4.9076763E1,2.627E1,2.8419056E1,2.9985594E1,3.133E1,3.264091E1,3.379E1,3.492E1,3.602E1,3.746307E1,3.8946064E1,4.046E1,4.2002914E1,4.341483E1,4.5167828E1,4.777E1,5.0360474E1,-6.1538804E-1,-5.5238175E-1,-4.9181706E-1,-4.522055E-1,-4.126601E-1,-3.7808153E-1,-3.439709E-1,-3.1209832E-1,-2.7983543E-1,-2.4916497E-1,-2.1961255E-1,-1.9016942E-1,-1.6182874E-1,-1.3222508E-1,-1.0780783E-1,-8.050957E-2,-4.1181356E-2,-1.0233915E-3,3.3070993E-2,7.3740184E-2,1.0967127E-1,1.4782812E-1,1.860062E-1,2.258871E-1,2.6015922E-1,2.9565334E-1,3.388876E-1,3.8968274E-1,4.638481E-1,5.2860594E-1,5.9061384E-1,6.546552E-1],"split_indices":[2,2,2,2,2,2,2,2,2,2,2,2,2,2,2,2,2,2,2,2,2,2,2,2,2,2,2,2,2,2,2,0,0,0,0,0,0,0,0,0,0,0,0,0,0,0,0,0,0,0,0,0,0,0,0,0,0,0,0,0,0,0,0],"split_type":[0,0,0,0,0,0,0,0,0,0,0,0,0,0,0,0,0,0,0,0,0,0,0,0,0,0,0,0,0,0,0,0,0,0,0,0,0,0,0,0,0,0,0,0,0,0,0,0,0,0,0,0,0,0,0,0,0,0,0,0,0,0,0],"sum_hessian":[1.38457E5,5.1872E4,8.6585E4,3.3495E4,1.8377E4,5.5751E4,3.0834E4,1.571E4,1.7785E4,5.366E3,1.3011E4,3.2489E4,2.3262E4,1.8419E4,1.2415E4,4.36E3,1.135E4,9.693E3,8.092E3,2.667E3,2.699E3,5.404E3,7.607E3,1.7866E4,1.4623E4,1.0786E4,1.2476E4,9.718E3,8.701E3,5.935E3,6.48E3,1.084E3,3.276E3,5.388E3,5.962E3,5.908E3,3.785E3,3.796E3,4.296E3,1.607E3,1.06E3,1.614E3,1.085E3,2.692E3,2.712E3,4.359E3,3.248E3,7.54E3,1.0326E4,7.078E3,7.545E3,7.005E3,3.781E3,5.434E3,7.042E3,5.478E3,4.24E3,5.973E3,2.728E3,2.205E3,3.73E3,3.736E3,2.744E3],"tree_param":{"num_deleted":"0","num_feature":"18","num_nodes":"63","size_leaf_vector":"1"}},{"base_weights":[9.57277E-3,-6.176261E0,3.834117E0,-8.086529E0,-2.736702E0,1.7372998E0,8.222741E0,-9.414416E0,-6.8824425E0,-4.1967616E0,-2.0612218E0,4.7193792E-1,3.6183598E0,6.2691026E0,1.081329E1,-1.079341E1,-8.914508E0,-7.5120287E0,-6.1210737E0,-4.857737E0,-3.6507642E0,-2.5553482E0,-1.64319E0,-1.2790218E-1,1.400127E0,2.7403986E0,4.311685E0,5.7068253E0,7.1750417E0,9.810705E0,1.1829018E1,-5.848667E-1,-5.246899E-1,-4.6540385E-1,-4.2606798E-1,-3.8878083E-1,-3.5461545E-1,-3.2014447E-1,-2.8995153E-1,-2.6143584E-1,-2.3052359E-1,-1.9840568E-1,-1.661647E-1,-1.4520667E-1,-1.17869936E-1,-9.357381E-2,-6.855535E-2,-2.9481515E-2,1.1428535E-2,5.0844967E-2,8.499279E-2,1.17684044E-1,1.5824713E-1,1.9761036E-1,2.3345041E-1,2.6545593E-1,3.0511892E-1,3.4214342E-1,4.0195653E-1,4.5999223E-1,5.1540035E-1,5.6559354E-1,6.2168753E-1],"categories":[],"categories_nodes":[],"categories_segments":[],"categories_sizes":[],"default_left":[0,0,0,0,0,0,0,0,0,0,0,0,0,0,0,0,0,0,0,0,0,0,0,0,0,0,0,0,0,0,0,0,0,0,0,0,0,0,0,0,0,0,0,0,0,0,0,0,0,0,0,0,0,0,0,0,0,0,0,0,0,0,0],"id":1,"left_children":[1,3,5,7,9,11,13,15,17,19,21,23,25,27,29,31,33,35,37,39,41,43,45,47,49,51,53,55,57,59,61,-1,-1,-1,-1,-1,-1,-1,-1,-1,-1,-1,-1,-1,-1,-1,-1,-1,-1,-1,-1,-1,-1,-1,-1,-1,-1,-1,-1,-1,-1,-1,-1],"loss_changes":[3.2690142E6,3.4684662E5,7.857199E5,5.4203E4,1.8583969E4,1.375299E5,1.3964612E5,1.1029E4,8.4883125E3,2.1338984E3,2.6585703E3,1.9233627E4,1.4132844E4,7.976875E3,1.1968625E4,1.0388125E3,1.7541875E3,1.0225625E3,6.9471875E2,2.2301562E2,3.2653516E2,4.0091406E2,4.3135352E2,3.4541306E3,1.5559492E3,1.6763672E3,1.6490625E3,1.4961875E3,1.6740312E3,1.72125E3,1.701375E3,0E0,0E0,0E0,0E0,0E0,0E0,0E0,0E0,0E0,0E0,0E0,0E0,0E0,0E0,0E0,0E0,0E0,0E0,0E0,0E0,0E0,0E0,0E0,0E0,0E0,0E0,0E0,0E0,0E0,0E0,0E0,0E0],"parents":[2147483647,0,0,1,1,2,2,3,3,4,4,5,5,6,6,7,7,8,8,9,9,10,10,11,11,12,12,13,13,14,14,15,15,16,16,17,17,18,18,19,19,20,20,21,21,22,22,23,23,24,24,25,25,26,26,27,27,28,28,29,29,30,30],"right_children":[2,4,6,8,10,12,14,16,18,20,22,24,26,28,30,32,34,36,38,40,42,44,46,48,50,52,54,56,58,60,62,-1,-1,-1,-1,-1,-1,-1,-1,-1,-1,-1,-1,-1,-1,-1,-1,-1,-1,-1,-1,-1,-1,-1,-1,-1,-1,-1,-1,-1,-1,-1,-1],"split_conditions":[3.6683773E1,3.21625E1,4.3123257E1,2.93E1,3.460017E1,4.0025494E1,4.6881256E1,2.744226E1,3.0734442E1,3.3402405E1,3.565785E1,3.855E1,4.158E1,4.466699E1,4.9256252E1,2.627E1,2.8491009E1,3.008E1,3.1461773E1,3.264091E1,3.4060833E1,3.5085762E1,3.6163593E1,3.77E1,3.9291943E1,4.0778595E1,4.24E1,4.386325E1,4.57E1,4.8174E1,5.0360474E1,-5.848667E-1,-5.246899E-1,-4.6540385E-1,-4.2606798E-1,-3.8878083E-1,-3.5461545E-1,-3.2014447E-1,-2.8995153E-1,-2.6143584E-1,-2.3052359E-1,-1.9840568E-1,-1.661647E-1,-1.4520667E-1,-1.17869936E-1,-9.357381E-2,-6.855535E-2,-2.9481515E-2,1.1428535E-2,5.0844967E-2,8.499279E-2,1.17684044E-1,1.5824713E-1,1.9761036E-1,2.3345041E-1,2.6545593E-1,3.0511892E-1,3.4214342E-1,4.0195653E-1,4.5999223E-1,5.1540035E-1,5.6559354E-1,6.2168753E-1],"split_indices":[2,2,2,2,2,2,2,2,2,2,2,2,2,2,2,2,2,2,2,2,2,2,2,2,2,2,2,2,2,2,2,0,0,0,0,0,0,0,0,0,0,0,0,0,0,0,0,0,0,0,0,0,0,0,0,0,0,0,0,0,0,0,0],"split_type":[0,0,0,0,0,0,0,0,0,0,0,0,0,0,0,0,0,0,0,0,0,0,0,0,0,0,0,0,0,0,0,0,0,0,0,0,0,0,0,0,0,0,0,0,0,0,0,0,0,0,0,0,0,0,0,0,0,0,0,0,0,0,0],"sum_hessian":[1.38176E5,5.2791E4,8.5385E4,3.394E4,1.8851E4,5.778E4,2.7605E4,1.6137E4,1.7803E4,5.961E3,1.289E4,3.4544E4,2.3236E4,1.5739E4,1.1866E4,4.288E3,1.1849E4,9.74E3,8.063E3,2.693E3,3.268E3,5.905E3,6.985E3,2.0984E4,1.356E4,1.0255E4,1.2981E4,9.716E3,6.023E3,5.977E3,5.889E3,1.058E3,3.23E3,5.91E3,5.939E3,5.972E3,3.768E3,4.29E3,3.773E3,1.069E3,1.624E3,1.654E3,1.614E3,2.133E3,3.772E3,3.795E3,3.19E3,9.142E3,1.1842E4,5.953E3,7.607E3,5.37E3,4.885E3,6.477E3,6.504E3,4.852E3,4.864E3,4.357E3,1.666E3,2.691E3,3.286E3,3.185E3,2.704E3],"tree_param":{"num_deleted":"0","num_feature":"18","num_nodes":"63","size_leaf_vector":"1"}},{"base_weights":[-1.359715E-2,-5.9174705E0,3.6058278E0,-7.687126E0,-2.6470404E0,1.5577549E0,7.7022057E0,-8.911925E0,-6.5001273E0,-4.0926304E0,-2.0376341E0,3.759937E-1,3.3004284E0,5.8720093E0,1.02824135E1,-1.0156935E1,-8.400138E0,-7.0989237E0,-5.8176885E0,-4.740359E0,-3.6524773E0,-2.5176477E0,-1.6271071E0,-2.641811E-1,1.1241376E0,2.4557836E0,3.9773624E0,5.269585E0,6.6986322E0,9.323686E0,1.1230083E1,-5.445442E-1,-4.8931947E-1,-4.3668506E-1,-3.997311E-1,-3.6750117E-1,-3.3687246E-1,-3.024736E-1,-2.732523E-1,-2.4867956E-1,-2.2503515E-1,-1.981768E-1,-1.6713025E-1,-1.4038359E-1,-1.1373428E-1,-9.226377E-2,-6.888851E-2,-3.3205822E-2,2.6876032E-3,3.4739375E-2,7.348444E-2,1.0710292E-1,1.4431947E-1,1.8157278E-1,2.1617833E-1,2.469976E-1,2.8390664E-1,3.207409E-1,3.8177404E-1,4.374697E-1,4.896647E-1,5.3723484E-1,5.909173E-1],"categories":[],"categories_nodes":[],"categories_segments":[],"categories_sizes":[],"default_left":[0,0,0,0,0,0,0,0,0,0,0,0,0,0,0,0,0,0,0,0,0,0,0,0,0,0,0,0,0,0,0,0,0,0,0,0,0,0,0,0,0,0,0,0,0,0,0,0,0,0,0,0,0,0,0,0,0,0,0,0,0,0,0],"id":2,"left_children":[1,3,5,7,9,11,13,15,17,19,21,23,25,27,29,31,33,35,37,39,41,43,45,47,49,51,53,55,57,59,61,-1,-1,-1,-1,-1,-1,-1,-1,-1,-1,-1,-1,-1,-1,-1,-1,-1,-1,-1,-1,-1,-1,-1,-1,-1,-1,-1,-1,-1,-1,-1,-1],"loss_changes":[2.9556015E6,3.0421862E5,7.19378E5,4.95325E4,1.6253141E4,1.1772984E5,1.3490725E5,1.060975E4,7.0388125E3,1.5430391E3,2.5551016E3,1.6316446E4,1.3198641E4,8.292375E3,1.0669875E4,1.2219688E3,1.54E3,7.8771875E2,6.2925E2,1.01203125E2,3.0126172E2,4.1534766E2,3.7840234E2,2.3344326E3,2.3296055E3,1.3825625E3,1.5198125E3,1.2753125E3,1.8245E3,1.5057812E3,1.5745625E3,0E0,0E0,0E0,0E0,0E0,0E0,0E0,0E0,0E0,0E0,0E0,0E0,0E0,0E0,0E0,0E0,0E0,0E0,0E0,0E0,0E0,0E0,0E0,0E0,0E0,0E0,0E0,0E0,0E0,0E0,0E0,0E0],"parents":[2147483647,0,0,1,1,2,2,3,3,4,4,5,5,6,6,7,7,8,8,9,9,10,10,11,11,12,12,13,13,14,14,15,15,16,16,17,17,18,18,19,19,20,20,21,21,22,22,23,23,24,24,25,25,26,26,27,27,28,28,29,29,30,30],"right_children":[2,4,6,8,10,12,14,16,18,20,22,24,26,28,30,32,34,36,38,40,42,44,46,48,50,52,54,56,58,60,62,-1,-1,-1,-1,-1,-1,-1,-1,-1,-1,-1,-1,-1,-1,-1,-1,-1,-1,-1,-1,-1,-1,-1,-1,-1,-1,-1,-1,-1,-1,-1,-1],"split_conditions":[3.6608856E1,3.21625E1,4.3E1,2.9376768E1,3.447E1,3.9920258E1,4.6881256E1,2.7663866E1,3.0734442E1,3.317E1,3.557858E1,3.8335136E1,4.14222E1,4.450614E1,4.9256252E1,2.6462807E1,2.8638845E1,3.008E1,3.1532516E1,3.264091E1,3.379E1,3.5085762E1,3.6090675E1,3.755269E1,3.908E1,4.0682648E1,4.227466E1,4.3762115E1,4.57E1,4.8174E1,5.0360474E1,-5.445442E-1,-4.8931947E-1,-4.3668506E-1,-3.997311E-1,-3.6750117E-1,-3.3687246E-1,-3.024736E-1,-2.732523E-1,-2.4867956E-1,-2.2503515E-1,-1.981768E-1,-1.6713025E-1,-1.4038359E-1,-1.1373428E-1,-9.226377E-2,-6.888851E-2,-3.3205822E-2,2.6876032E-3,3.4739375E-2,7.348444E-2,1.0710292E-1,1.4431947E-1,1.8157278E-1,2.1617833E-1,2.469976E-1,2.8390664E-1,3.207409E-1,3.8177404E-1,4.374697E-1,4.896647E-1,5.3723484E-1,5.909173E-1],"split_indices":[2,2,2,2,2,2,2,2,2,2,2,2,2,2,2,2,2,2,2,2,2,2,2,2,2,2,2,2,2,2,2,0,0,0,0,0,0,0,0,0,0,0,0,0,0,0,0,0,0,0,0,0,0,0,0,0,0,0,0,0,0,0,0],"split_type":[0,0,0,0,0,0,0,0,0,0,0,0,0,0,0,0,0,0,0,0,0,0,0,0,0,0,0,0,0,0,0,0,0,0,0,0,0,0,0,0,0,0,0,0,0,0,0,0,0,0,0,0,0,0,0,0,0,0,0,0,0,0,0],"sum_hessian":[1.38313E5,5.2567E4,8.5746E4,3.4109E4,1.8458E4,5.7166E4,2.858E4,1.6784E4,1.7325E4,5.472E3,1.2986E4,3.4066E4,2.31E4,1.6722E4,1.1858E4,4.884E3,1.19E4,9.223E3,8.102E3,2.21E3,3.262E3,5.984E3,7.002E3,1.8358E4,1.5708E4,1.0279E4,1.2821E4,9.677E3,7.045E3,5.9E3,5.958E3,1.629E3,3.255E3,6.518E3,5.382E3,5.431E3,3.792E3,4.879E3,3.223E3,1.11E3,1.1E3,1.622E3,1.64E3,2.723E3,3.261E3,3.731E3,3.271E3,8.13E3,1.0228E4,7.006E3,8.702E3,5.95E3,4.329E3,6.419E3,6.402E3,5.363E3,4.314E3,5.413E3,1.632E3,2.663E3,3.237E3,3.275E3,2.683E3],"tree_param":{"num_deleted":"0","num_feature":"18","num_nodes":"63","size_leaf_vector":"1"}},{"base_weights":[-7.6019135E-3,-5.529663E0,3.4841623E0,-7.258835E0,-2.353734E0,1.6451296E0,7.5406923E0,-8.429676E0,-6.092557E0,-3.5201437E0,-1.7483201E0,4.917979E-1,3.3829837E0,5.8008018E0,9.857326E0,-9.652567E0,-7.9461813E0,-6.6717973E0,-5.442455E0,-4.0748334E0,-2.9718766E0,-2.115789E0,-1.3488427E0,-7.296112E-2,1.3367113E0,2.6139214E0,3.9994478E0,5.3353186E0,6.7961617E0,9.03342E0,1.0760153E1,-5.281098E-1,-4.6924487E-1,-4.1323504E-1,-3.7661394E-1,-3.4587142E-1,-3.161217E-1,-2.8359762E-1,-2.547519E-1,-2.1925926E-1,-1.8828051E-1,-1.6336523E-1,-1.41336E-1,-1.1836701E-1,-9.6835844E-2,-7.7953465E-2,-5.8684047E-2,-2.3063418E-2,1.2859764E-2,4.9933255E-2,8.13291E-2,1.1104403E-1,1.4812204E-1,1.842225E-1,2.15667E-1,2.474304E-1,2.8434736E-1,3.2114825E-1,3.7787077E-1,4.261706E-1,4.7271657E-1,5.1808184E-1,5.6718475E-1],"categories":[],"categories_nodes":[],"categories_segments":[],"categories_sizes":[],"default_left":[0,0,0,0,0,0,0,0,0,0,0,0,0,0,0,0,0,0,0,0,0,0,0,0,0,0,0,0,0,0,0,0,0,0,0,0,0,0,0,0,0,0,0,0,0,0,0,0,0,0,0,0,0,0,0,0,0,0,0,0,0,0,0],"id":3,"left_children":[1,3,5,7,9,11,13,15,17,19,21,23,25,27,29,31,33,35,37,39,41,43,45,47,49,51,53,55,57,59,61,-1,-1,-1,-1,-1,-1,-1,-1,-1,-1,-1,-1,-1,-1,-1,-1,-1,-1,-1,-1,-1,-1,-1,-1,-1,-1,-1,-1,-1,-1,-1,-1],"loss_changes":[2.6692285E6,2.9448225E5,6.326556E5,4.736125E4,1.3344516E4,1.1695856E5,1.06570625E5,1.016625E4,6.5151875E3,1.9521875E3,1.8244531E3,1.6737875E4,1.1025625E4,6.9645625E3,8.34175E3,1.094875E3,1.57525E3,7.45375E2,6.251406E2,2.9135547E2,1.302207E2,2.8740234E2,2.1789746E2,2.695568E3,1.3754238E3,1.4125625E3,1.2614531E3,1.3724375E3,1.3182656E3,1.194125E3,1.1400625E3,0E0,0E0,0E0,0E0,0E0,0E0,0E0,0E0,0E0,0E0,0E0,0E0,0E0,0E0,0E0,0E0,0E0,0E0,0E0,0E0,0E0,0E0,0E0,0E0,0E0,0E0,0E0,0E0,0E0,0E0,0E0,0E0],"parents":[2147483647,0,0,1,1,2,2,3,3,4,4,5,5,6,6,7,7,8,8,9,9,10,10,11,11,12,12,13,13,14,14,15,15,16,16,17,17,18,18,19,19,20,20,21,21,22,22,23,23,24,24,25,25,26,26,27,27,28,28,29,29,30,30],"right_children":[2,4,6,8,10,12,14,16,18,20,22,24,26,28,30,32,34,36,38,40,42,44,46,48,50,52,54,56,58,60,62,-1,-1,-1,-1,-1,-1,-1,-1,-1,-1,-1,-1,-1,-1,-1,-1,-1,-1,-1,-1,-1,-1,-1,-1,-1,-1,-1,-1,-1,-1,-1,-1],"split_conditions":[3.6767906E1,3.2328957E1,4.325E1,2.9466799E1,3.4795033E1,4.015E1,4.711E1,2.7663866E1,3.085E1,3.379E1,3.584876E1,3.8617012E1,4.1772224E1,4.495E1,4.94499E1,2.627E1,2.8711E1,3.0193542E1,3.1613955E1,3.317E1,3.430292E1,3.537E1,3.626E1,3.7780144E1,3.94E1,4.0892563E1,4.2554417E1,4.410042E1,4.6128994E1,4.8382484E1,5.059994E1,-5.281098E-1,-4.6924487E-1,-4.1323504E-1,-3.7661394E-1,-3.4587142E-1,-3.161217E-1,-2.8359762E-1,-2.547519E-1,-2.1925926E-1,-1.8828051E-1,-1.6336523E-1,-1.41336E-1,-1.1836701E-1,-9.6835844E-2,-7.7953465E-2,-5.8684047E-2,-2.3063418E-2,1.2859764E-2,4.9933255E-2,8.13291E-2,1.1104403E-1,1.4812204E-1,1.842225E-1,2.15667E-1,2.474304E-1,2.8434736E-1,3.2114825E-1,3.7787077E-1,4.261706E-1,4.7271657E-1,5.1808184E-1,5.6718475E-1],"split_indices":[2,2,2,2,2,2,2,2,2,2,2,2,2,2,2,2,2,2,2,2,2,2,2,2,2,2,2,2,2,2,2,0,0,0,0,0,0,0,0,0,0,0,0,0,0,0,0,0,0,0,0,0,0,0,0,0,0,0,0,0,0,0,0],"split_type":[0,0,0,0,0,0,0,0,0,0,0,0,0,0,0,0,0,0,0,0,0,0,0,0,0,0,0,0,0,0,0,0,0,0,0,0,0,0,0,0,0,0,0,0,0,0,0,0,0,0,0,0,0,0,0,0,0,0,0,0,0,0,0],"sum_hessian":[1.38431E5,5.3625E4,8.4806E4,3.472E4,1.8905E4,5.8353E4,2.6453E4,1.7323E4,1.7397E4,6.458E3,1.2447E4,3.5076E4,2.3277E4,1.5109E4,1.1344E4,4.903E3,1.242E4,9.195E3,8.202E3,3.207E3,3.251E3,6.481E3,5.966E3,2.1024E4,1.4052E4,1.0359E4,1.2918E4,1.0299E4,4.81E3,5.937E3,5.407E3,1.106E3,3.797E3,7.008E3,5.412E3,5.388E3,3.807E3,4.93E3,3.272E3,1.594E3,1.613E3,1.064E3,2.187E3,2.69E3,3.791E3,2.708E3,3.258E3,9.661E3,1.1363E4,6.489E3,7.563E3,4.872E3,5.487E3,6.454E3,6.464E3,4.912E3,5.387E3,3.234E3,1.576E3,2.694E3,3.243E3,3.224E3,2.183E3],"tree_param":{"num_deleted":"0","num_feature":"18","num_nodes":"63","size_leaf_vector":"1"}},{"base_weights":[-2.5064582E-3,-5.296802E0,3.2869463E0,-6.9355326E0,-2.34547E0,1.5128466E0,7.1196046E0,-8.154126E0,-5.9612064E0,-3.5993512E0,-1.7680589E0,4.204799E-1,3.1593359E0,5.4771366E0,9.366825E0,-9.368223E0,-7.746631E0,-6.565034E0,-5.3216743E0,-4.166291E0,-3.124976E0,-2.1622694E0,-1.373575E0,-1.2691325E-1,1.1956282E0,2.414679E0,3.750406E0,4.999814E0,6.388768E0,8.654948E0,1.0310142E1,-5.218937E-1,-4.5938355E-1,-4.068937E-1,-3.725279E-1,-3.4020922E-1,-3.1317386E-1,-2.8432938E-1,-2.5322115E-1,-2.1894072E-1,-1.9206902E-1,-1.6993475E-1,-1.4275967E-1,-1.22081056E-1,-9.802343E-2,-7.71469E-2,-5.688247E-2,-2.755836E-2,7.5761103E-3,4.341039E-2,7.513809E-2,1.0416938E-1,1.3900493E-1,1.7235337E-1,2.0249276E-1,2.3112272E-1,2.6672262E-1,3.0251372E-1,3.5880738E-1,4.0903407E-1,4.5623994E-1,5.003232E-1,5.452639E-1],"categories":[],"categories_nodes":[],"categories_segments":[],"categories_sizes":[],"default_left":[0,0,0,0,0,0,0,0,0,0,0,0,0,0,0,0,0,0,0,0,0,0,0,0,0,0,0,0,0,0,0,0,0,0,0,0,0,0,0,0,0,0,0,0,0,0,0,0,0,0,0,0,0,0,0,0,0,0,0,0,0,0,0],"id":4,"left_children":[1,3,5,7,9,11,13,15,17,19,21,23,25,27,29,31,33,35,37,39,41,43,45,47,49,51,53,55,57,59,61,-1,-1,-1,-1,-1,-1,-1,-1,-1,-1,-1,-1,-1,-1,-1,-1,-1,-1,-1,-1,-1,-1,-1,-1,-1,-1,-1,-1,-1,-1,-1,-1],"loss_changes":[2.4026722E6,2.5568612E5,5.785806E5,4.031275E4,1.366068E4,1.0461969E5,9.9328625E4,7.3985E3,7.2613125E3,1.5874531E3,2.0073047E3,1.4838303E4,1.0202297E4,6.738E3,7.544625E3,6.3603125E2,1.2496875E3,6.5790625E2,8.330469E2,1.7017188E2,2.2984961E2,3.5960938E2,2.5652734E2,2.4213396E3,1.4542266E3,1.237375E3,1.1607188E3,1.2654375E3,1.380625E3,1.3704688E3,7.735625E2,0E0,0E0,0E0,0E0,0E0,0E0,0E0,0E0,0E0,0E0,0E0,0E0,0E0,0E0,0E0,0E0,0E0,0E0,0E0,0E0,0E0,0E0,0E0,0E0,0E0,0E0,0E0,0E0,0E0,0E0,0E0,0E0],"parents":[2147483647,0,0,1,1,2,2,3,3,4,4,5,5,6,6,7,7,8,8,9,9,10,10,11,11,12,12,13,13,14,14,15,15,16,16,17,17,18,18,19,19,20,20,21,21,22,22,23,23,24,24,25,25,26,26,27,27,28,28,29,29,30,30],"right_children":[2,4,6,8,10,12,14,16,18,20,22,24,26,28,30,32,34,36,38,40,42,44,46,48,50,52,54,56,58,60,62,-1,-1,-1,-1,-1,-1,-1,-1,-1,-1,-1,-1,-1,-1,-1,-1,-1,-1,-1,-1,-1,-1,-1,-1,-1,-1,-1,-1,-1,-1,-1,-1],"split_conditions":[3.6683773E1,3.21625E1,4.318993E1,2.9167252E1,3.460017E1,4.009263E1,4.711E1,2.7191025E1,3.0533089E1,3.3402405E1,3.573E1,3.8505306E1,4.1671173E1,4.485E1,4.960902E1,2.555E1,2.828109E1,2.9833399E1,3.124371E1,3.2883102E1,3.4060833E1,3.52E1,3.626E1,3.7609673E1,3.9341454E1,4.0892563E1,4.2480724E1,4.3996094E1,4.6128994E1,4.8525158E1,5.0784496E1,-5.218937E-1,-4.5938355E-1,-4.068937E-1,-3.725279E-1,-3.4020922E-1,-3.1317386E-1,-2.8432938E-1,-2.5322115E-1,-2.1894072E-1,-1.9206902E-1,-1.6993475E-1,-1.4275967E-1,-1.22081056E-1,-9.802343E-2,-7.71469E-2,-5.688247E-2,-2.755836E-2,7.5761103E-3,4.341039E-2,7.513809E-2,1.0416938E-1,1.3900493E-1,1.7235337E-1,2.0249276E-1,2.3112272E-1,2.6672262E-1,3.0251372E-1,3.5880738E-1,4.0903407E-1,4.5623994E-1,5.003232E-1,5.452639E-1],"split_indices":[2,2,2,2,2,2,2,2,2,2,2,2,2,2,2,2,2,2,2,2,2,2,2,2,2,2,2,2,2,2,2,0,0,0,0,0,0,0,0,0,0,0,0,0,0,0,0,0,0,0,0,0,0,0,0,0,0,0,0,0,0,0,0],"split_type":[0,0,0,0,0,0,0,0,0,0,0,0,0,0,0,0,0,0,0,0,0,0,0,0,0,0,0,0,0,0,0,0,0,0,0,0,0,0,0,0,0,0,0,0,0,0,0,0,0,0,0,0,0,0,0,0,0,0,0,0,0,0,0],"sum_hessian":[1.37961E5,5.2869E4,8.5092E4,3.3993E4,1.8876E4,5.8168E4,2.6924E4,1.51E4,1.8893E4,5.95E3,1.2926E4,3.4969E4,2.3199E4,1.5557E4,1.1367E4,3.789E3,1.1311E4,9.713E3,9.18E3,2.707E3,3.243E3,6.463E3,6.463E3,2.0496E4,1.4473E4,1.0268E4,1.2931E4,1.0215E4,5.342E3,6.484E3,4.883E3,5.39E2,3.25E3,4.861E3,6.45E3,5.405E3,4.308E3,3.787E3,5.393E3,1.629E3,1.078E3,1.604E3,1.639E3,2.706E3,3.757E3,3.759E3,2.704E3,8.121E3,1.2375E4,7.007E3,7.466E3,5.389E3,4.879E3,6.43E3,6.501E3,4.808E3,5.407E3,3.742E3,1.6E3,3.236E3,3.248E3,3.245E3,1.638E3],"tree_param":{"num_deleted":"0","num_feature":"18","num_nodes":"63","size_leaf_vector":"1"}},{"base_weights":[-2.981851E-3,-4.9489274E0,3.1776583E0,-6.5476136E0,-2.094187E0,1.5374981E0,6.8592033E0,-7.6036925E0,-5.4970465E0,-3.182668E0,-1.5524274E0,5.0811434E-1,3.1465478E0,5.2796235E0,8.895241E0,-8.629224E0,-7.1381407E0,-6.0231004E0,-4.9075937E0,-3.6767073E0,-2.6851866E0,-1.882971E0,-1.1619785E0,-2.6195664E-2,1.2739421E0,2.4615805E0,3.659372E0,4.888505E0,6.21143E0,8.149282E0,9.716954E0,-4.6076256E-1,-4.1188732E-1,-3.6996642E-1,-3.3798572E-1,-3.122264E-1,-2.8535065E-1,-2.5597697E-1,-2.2939773E-1,-1.9761576E-1,-1.700775E-1,-1.4720711E-1,-1.2762265E-1,-1.0681229E-1,-8.616272E-2,-6.707996E-2,-5.0427128E-2,-1.6362015E-2,1.5837274E-2,4.9717482E-2,7.8762464E-2,1.07005335E-1,1.389992E-1,1.6883223E-1,1.9684179E-1,2.2696511E-1,2.600057E-1,2.9291788E-1,3.4110847E-1,3.8435215E-1,4.2658314E-1,4.6779948E-1,5.122451E-1],"categories":[],"categories_nodes":[],"categories_segments":[],"categories_sizes":[],"default_left":[0,0,0,0,0,0,0,0,0,0,0,0,0,0,0,0,0,0,0,0,0,0,0,0,0,0,0,0,0,0,0,0,0,0,0,0,0,0,0,0,0,0,0,0,0,0,0,0,0,0,0,0,0,0,0,0,0,0,0,0,0,0,0],"id":5,"left_children":[1,3,5,7,9,11,13,15,17,19,21,23,25,27,29,31,33,35,37,39,41,43,45,47,49,51,53,55,57,59,61,-1,-1,-1,-1,-1,-1,-1,-1,-1,-1,-1,-1,-1,-1,-1,-1,-1,-1,-1,-1,-1,-1,-1,-1,-1,-1,-1,-1,-1,-1,-1,-1],"loss_changes":[2.1756822E6,2.4702662E5,5.082532E5,3.8455E4,1.1454609E4,9.64498E4,8.338475E4,8.198625E3,5.36525E3,1.5770977E3,1.672627E3,1.4531986E4,7.971453E3,5.2945625E3,6.866875E3,1.1622812E3,1.1266875E3,6.075E2,5.3271875E2,2.3203516E2,1.0319922E2,2.8053516E2,1.6268604E2,2.159897E3,1.2279648E3,9.9E2,1.00571875E3,1.09675E3,8.907031E2,9.8540625E2,9.3075E2,0E0,0E0,0E0,0E0,0E0,0E0,0E0,0E0,0E0,0E0,0E0,0E0,0E0,0E0,0E0,0E0,0E0,0E0,0E0,0E0,0E0,0E0,0E0,0E0,0E0,0E0,0E0,0E0,0E0,0E0,0E0,0E0],"parents":[2147483647,0,0,1,1,2,2,3,3,4,4,5,5,6,6,7,7,8,8,9,9,10,10,11,11,12,12,13,13,14,14,15,15,16,16,17,17,18,18,19,19,20,20,21,21,22,22,23,23,24,24,25,25,26,26,27,27,28,28,29,29,30,30],"right_children":[2,4,6,8,10,12,14,16,18,20,22,24,26,28,30,32,34,36,38,40,42,44,46,48,50,52,54,56,58,60,62,-1,-1,-1,-1,-1,-1,-1,-1,-1,-1,-1,-1,-1,-1,-1,-1,-1,-1,-1,-1,-1,-1,-1,-1,-1,-1,-1,-1,-1,-1,-1,-1],"split_conditions":[3.685E1,3.2328957E1,4.332633E1,2.9466799E1,3.4795033E1,4.0252216E1,4.711E1,2.7786E1,3.085E1,3.379E1,3.592495E1,3.8693672E1,4.186799E1,4.506955E1,4.94499E1,2.6626534E1,2.8786385E1,3.0193542E1,3.1613955E1,3.317E1,3.430292E1,3.537E1,3.6350285E1,3.79E1,3.9556717E1,4.109608E1,4.2618187E1,4.4208294E1,4.6128994E1,4.8382484E1,5.059994E1,-4.6076256E-1,-4.1188732E-1,-3.6996642E-1,-3.3798572E-1,-3.122264E-1,-2.8535065E-1,-2.5597697E-1,-2.2939773E-1,-1.9761576E-1,-1.700775E-1,-1.4720711E-1,-1.2762265E-1,-1.0681229E-1,-8.616272E-2,-6.707996E-2,-5.0427128E-2,-1.6362015E-2,1.5837274E-2,4.9717482E-2,7.8762464E-2,1.07005335E-1,1.389992E-1,1.6883223E-1,1.9684179E-1,2.2696511E-1,2.600057E-1,2.9291788E-1,3.4110847E-1,3.8435215E-1,4.2658314E-1,4.6779948E-1,5.122451E-1],"split_indices":[2,2,2,2,2,2,2,2,2,2,2,2,2,2,2,2,2,2,2,2,2,2,2,2,2,2,2,2,2,2,2,0,0,0,0,0,0,0,0,0,0,0,0,0,0,0,0,0,0,0,0,0,0,0,0,0,0,0,0,0,0,0,0],"split_type":[0,0,0,0,0,0,0,0,0,0,0,0,0,0,0,0,0,0,0,0,0,0,0,0,0,0,0,0,0,0,0,0,0,0,0,0,0,0,0,0,0,0,0,0,0,0,0,0,0,0,0,0,0,0,0,0,0,0,0,0,0,0,0],"sum_hessian":[1.38301E5,5.4129E4,8.4172E4,3.4697E4,1.9432E4,5.8231E4,2.5941E4,1.73E4,1.7397E4,6.456E3,1.2976E4,3.5513E4,2.2718E4,1.461E4,1.1331E4,5.396E3,1.1904E4,9.188E3,8.209E3,3.236E3,3.22E3,7.025E3,5.951E3,2.0919E4,1.4594E4,9.729E3,1.2989E4,1.0295E4,4.315E3,5.945E3,5.386E3,2.152E3,3.244E3,7.032E3,4.872E3,5.392E3,3.796E3,4.927E3,3.282E3,1.61E3,1.626E3,1.084E3,2.136E3,2.712E3,4.313E3,2.738E3,3.213E3,1.114E4,9.779E3,7.572E3,7.022E3,4.845E3,4.884E3,6.44E3,6.549E3,4.862E3,5.433E3,2.741E3,1.574E3,2.701E3,3.244E3,3.21E3,2.176E3],"tree_param":{"num_deleted":"0","num_feature":"18","num_nodes":"63","size_leaf_vector":"1"}},{"base_weights":[-3.544176E-3,-4.700897E0,3.0204074E0,-6.222205E0,-1.9858336E0,1.4585688E0,6.522026E0,-7.257872E0,-5.2559247E0,-2.9583712E0,-1.443602E0,4.6021643E-1,2.958999E0,5.0182495E0,8.452137E0,-8.359261E0,-6.87205E0,-5.751858E0,-4.6614594E0,-3.4902256E0,-2.506632E0,-1.7506027E0,-1.1047171E0,-2.960624E-2,1.1892473E0,2.275998E0,3.4506457E0,4.610322E0,5.8323183E0,7.8075585E0,9.307682E0,-4.5407587E-1,-4.0599272E-1,-3.5911518E-1,-3.2669958E-1,-2.9933494E-1,-2.7280456E-1,-2.4185811E-1,-2.1563534E-1,-1.8773063E-1,-1.614378E-1,-1.3625534E-1,-1.1695381E-1,-9.594669E-2,-7.9125375E-2,-6.37593E-2,-4.7967475E-2,-1.6204515E-2,1.4337427E-2,4.615704E-2,7.277817E-2,9.851861E-2,1.2897955E-1,1.5794523E-1,1.8592189E-1,2.1392837E-1,2.4391077E-1,2.7560183E-1,3.2400143E-1,3.688025E-1,4.118065E-1,4.5166373E-1,4.922804E-1],"categories":[],"categories_nodes":[],"categories_segments":[],"categories_sizes":[],"default_left":[0,0,0,0,0,0,0,0,0,0,0,0,0,0,0,0,0,0,0,0,0,0,0,0,0,0,0,0,0,0,0,0,0,0,0,0,0,0,0,0,0,0,0,0,0,0,0,0,0,0,0,0,0,0,0,0,0,0,0,0,0,0,0],"id":6,"left_children":[1,3,5,7,9,11,13,15,17,19,21,23,25,27,29,31,33,35,37,39,41,43,45,47,49,51,53,55,57,59,61,-1,-1,-1,-1,-1,-1,-1,-1,-1,-1,-1,-1,-1,-1,-1,-1,-1,-1,-1,-1,-1,-1,-1,-1,-1,-1,-1,-1,-1,-1,-1,-1],"loss_changes":[1.9638952E6,2.23639E5,4.5999044E5,3.468975E4,1.0250398E4,8.713185E4,7.5258875E4,7.059E3,5.266875E3,1.663457E3,1.2971875E3,1.2473033E4,7.7960312E3,4.8165E3,6.192E3,6.766875E2,1.2545E3,6.47E2,4.7990625E2,2.0867578E2,1.3152344E2,1.8230078E2,1.4592432E2,1.946515E3,9.934375E2,8.9772266E2,1.0438281E3,8.4309375E2,9.735156E2,1.1385625E3,6.308125E2,0E0,0E0,0E0,0E0,0E0,0E0,0E0,0E0,0E0,0E0,0E0,0E0,0E0,0E0,0E0,0E0,0E0,0E0,0E0,0E0,0E0,0E0,0E0,0E0,0E0,0E0,0E0,0E0,0E0,0E0,0E0,0E0],"parents":[2147483647,0,0,1,1,2,2,3,3,4,4,5,5,6,6,7,7,8,8,9,9,10,10,11,11,12,12,13,13,14,14,15,15,16,16,17,17,18,18,19,19,20,20,21,21,22,22,23,23,24,24,25,25,26,26,27,27,28,28,29,29,30,30],"right_children":[2,4,6,8,10,12,14,16,18,20,22,24,26,28,30,32,34,36,38,40,42,44,46,48,50,52,54,56,58,60,62,-1,-1,-1,-1,-1,-1,-1,-1,-1,-1,-1,-1,-1,-1,-1,-1,-1,-1,-1,-1,-1,-1,-1,-1,-1,-1,-1,-1,-1,-1,-1,-1],"split_conditions":[3.685E1,3.2328957E1,4.332633E1,2.9376768E1,3.492E1,4.02E1,4.711E1,2.744226E1,3.085E1,3.379E1,3.592495E1,3.8693672E1,4.1772224E1,4.495E1,4.960902E1,2.627E1,2.856E1,3.008E1,3.17E1,3.317E1,3.447E1,3.551E1,3.6350285E1,3.7874615E1,3.950939E1,4.1E1,4.2554417E1,4.410042E1,4.6128994E1,4.8525158E1,5.0784496E1,-4.5407587E-1,-4.0599272E-1,-3.5911518E-1,-3.2669958E-1,-2.9933494E-1,-2.7280456E-1,-2.4185811E-1,-2.1563534E-1,-1.8773063E-1,-1.614378E-1,-1.3625534E-1,-1.1695381E-1,-9.594669E-2,-7.9125375E-2,-6.37593E-2,-4.7967475E-2,-1.6204515E-2,1.4337427E-2,4.615704E-2,7.277817E-2,9.851861E-2,1.2897955E-1,1.5794523E-1,1.8592189E-1,2.1392837E-1,2.4391077E-1,2.7560183E-1,3.2400143E-1,3.688025E-1,4.118065E-1,4.5166373E-1,4.922804E-1],"split_indices":[2,2,2,2,2,2,2,2,2,2,2,2,2,2,2,2,2,2,2,2,2,2,2,2,2,2,2,2,2,2,2,0,0,0,0,0,0,0,0,0,0,0,0,0,0,0,0,0,0,0,0,0,0,0,0,0,0,0,0,0,0,0,0],"split_type":[0,0,0,0,0,0,0,0,0,0,0,0,0,0,0,0,0,0,0,0,0,0,0,0,0,0,0,0,0,0,0,0,0,0,0,0,0,0,0,0,0,0,0,0,0,0,0,0,0,0,0,0,0,0,0,0,0,0,0,0,0,0,0],"sum_hessian":[1.38256E5,5.4146E4,8.411E4,3.4701E4,1.9445E4,5.8167E4,2.5943E4,1.6746E4,1.7955E4,6.959E3,1.2486E4,3.4928E4,2.3239E4,1.4584E4,1.1359E4,4.339E3,1.2407E4,9.784E3,8.171E3,3.193E3,3.766E3,6.549E3,5.937E3,2.0892E4,1.4036E4,9.729E3,1.351E4,9.72E3,4.864E3,6.484E3,4.875E3,1.071E3,3.268E3,6.459E3,5.948E3,5.443E3,4.341E3,5.425E3,2.746E3,1.581E3,1.612E3,1.628E3,2.138E3,3.267E3,3.282E3,2.729E3,3.208E3,1.082E4,1.0072E4,7.023E3,7.013E3,4.852E3,4.877E3,6.472E3,7.038E3,4.35E3,5.37E3,3.261E3,1.603E3,3.24E3,3.244E3,3.24E3,1.635E3],"tree_param":{"num_deleted":"0","num_feature":"18","num_nodes":"63","size_leaf_vector":"1"}},{"base_weights":[-2.2626068E-3,-4.5035005E0,2.8459227E0,-5.946447E0,-1.9763545E0,1.297692E0,6.0571475E0,-6.9542165E0,-5.082673E0,-3.1688986E0,-1.5215373E0,3.4729216E-1,2.6314027E0,4.605261E0,7.9518323E0,-7.9455934E0,-6.5782924E0,-5.574064E0,-4.52986E0,-3.5746675E0,-2.7530909E0,-1.917896E0,-1.1801962E0,-1.5053613E-1,9.122036E-1,1.9562052E0,3.1440263E0,4.1644306E0,5.229649E0,7.202004E0,8.695581E0,-4.4923505E-1,-3.8961855E-1,-3.4512338E-1,-3.167437E-1,-2.8930426E-1,-2.6538554E-1,-2.4223366E-1,-2.1704169E-1,-1.9258115E-1,-1.6954166E-1,-1.4600325E-1,-1.2499427E-1,-1.08755045E-1,-8.656567E-2,-6.7363545E-2,-4.782327E-2,-2.369402E-2,2.9972515E-3,2.9128352E-2,5.8922287E-2,8.384781E-2,1.1323368E-1,1.4401764E-1,1.716734E-1,1.9345587E-1,2.2111015E-1,2.4976908E-1,2.9640993E-1,3.3254072E-1,3.7577006E-1,4.1546303E-1,4.579462E-1],"categories":[],"categories_nodes":[],"categories_segments":[],"categories_sizes":[],"default_left":[0,0,0,0,0,0,0,0,0,0,0,0,0,0,0,0,0,0,0,0,0,0,0,0,0,0,0,0,0,0,0,0,0,0,0,0,0,0,0,0,0,0,0,0,0,0,0,0,0,0,0,0,0,0,0,0,0,0,0,0,0,0,0],"id":7,"left_children":[1,3,5,7,9,11,13,15,17,19,21,23,25,27,29,31,33,35,37,39,41,43,45,47,49,51,53,55,57,59,61,-1,-1,-1,-1,-1,-1,-1,-1,-1,-1,-1,-1,-1,-1,-1,-1,-1,-1,-1,-1,-1,-1,-1,-1,-1,-1,-1,-1,-1,-1,-1,-1],"loss_changes":[1.7728378E6,1.9540612E5,4.210618E5,2.9658625E4,1.0560383E4,7.2432445E4,7.574975E4,5.814125E3,4.9654062E3,8.973828E2,1.9057793E3,9.384182E3,8.223609E3,4.272125E3,6.60225E3,6.1825E2,8.57375E2,5.183125E2,4.9378125E2,1.2532031E2,1.0516211E2,3.0932227E2,2.8205078E2,1.207239E3,1.3711387E3,8.8033594E2,1.02146875E3,6.7934375E2,1.02625E3,9.7903125E2,9.97E2,0E0,0E0,0E0,0E0,0E0,0E0,0E0,0E0,0E0,0E0,0E0,0E0,0E0,0E0,0E0,0E0,0E0,0E0,0E0,0E0,0E0,0E0,0E0,0E0,0E0,0E0,0E0,0E0,0E0,0E0,0E0,0E0],"parents":[2147483647,0,0,1,1,2,2,3,3,4,4,5,5,6,6,7,7,8,8,9,9,10,10,11,11,12,12,13,13,14,14,15,15,16,16,17,17,18,18,19,19,20,20,21,21,22,22,23,23,24,24,25,25,26,26,27,27,28,28,29,29,30,30],"right_children":[2,4,6,8,10,12,14,16,18,20,22,24,26,28,30,32,34,36,38,40,42,44,46,48,50,52,54,56,58,60,62,-1,-1,-1,-1,-1,-1,-1,-1,-1,-1,-1,-1,-1,-1,-1,-1,-1,-1,-1,-1,-1,-1,-1,-1,-1,-1,-1,-1,-1,-1,-1,-1],"split_conditions":[3.6771664E1,3.215945E1,4.312226E1,2.9226034E1,3.4475777E1,3.9976135E1,4.6855003E1,2.74487E1,3.06365E1,3.3404E1,3.5659374E1,3.83745E1,4.1507206E1,4.45915E1,4.9250385E1,2.5576E1,2.834968E1,2.9896055E1,3.1250605E1,3.263065E1,3.4056686E1,3.510125E1,3.625701E1,3.7554344E1,3.913936E1,4.06835E1,4.239875E1,4.3764584E1,4.5689724E1,4.8002537E1,5.037054E1,-4.4923505E-1,-3.8961855E-1,-3.4512338E-1,-3.167437E-1,-2.8930426E-1,-2.6538554E-1,-2.4223366E-1,-2.1704169E-1,-1.9258115E-1,-1.6954166E-1,-1.4600325E-1,-1.2499427E-1,-1.08755045E-1,-8.656567E-2,-6.7363545E-2,-4.782327E-2,-2.369402E-2,2.9972515E-3,2.9128352E-2,5.8922287E-2,8.384781E-2,1.1323368E-1,1.4401764E-1,1.716734E-1,1.9345587E-1,2.2111015E-1,2.4976908E-1,2.9640993E-1,3.3254072E-1,3.7577006E-1,4.1546303E-1,4.579462E-1],"split_indices":[4,4,4,4,4,4,4,4,4,4,4,4,4,4,4,4,4,4,4,4,4,4,4,4,4,4,4,4,4,4,4,0,0,0,0,0,0,0,0,0,0,0,0,0,0,0,0,0,0,0,0,0,0,0,0,0,0,0,0,0,0,0,0],"split_type":[0,0,0,0,0,0,0,0,0,0,0,0,0,0,0,0,0,0,0,0,0,0,0,0,0,0,0,0,0,0,0,0,0,0,0,0,0,0,0,0,0,0,0,0,0,0,0,0,0,0,0,0,0,0,0,0,0,0,0,0,0,0,0],"sum_hessian":[1.38281E5,5.3589E4,8.4692E4,3.4111E4,1.9478E4,5.7143E4,2.7549E4,1.574E4,1.8371E4,5.376E3,1.4102E4,3.3367E4,2.3776E4,1.5599E4,1.195E4,4.322E3,1.1418E4,9.721E3,8.65E3,2.717E3,2.659E3,6.523E3,7.579E3,1.7737E4,1.563E4,1.0263E4,1.3513E4,9.148E3,6.451E3,5.956E3,5.994E3,5.48E2,3.774E3,4.885E3,6.533E3,5.401E3,4.32E3,3.236E3,5.414E3,1.076E3,1.641E3,1.596E3,1.063E3,2.738E3,3.785E3,4.336E3,3.243E3,6.993E3,1.0744E4,6.985E3,8.645E3,5.39E3,4.873E3,7.077E3,6.436E3,4.271E3,4.877E3,4.837E3,1.614E3,2.167E3,3.789E3,3.279E3,2.715E3],"tree_param":{"num_deleted":"0","num_feature":"18","num_nodes":"63","size_leaf_vector":"1"}},{"base_weights":[-8.045719E-3,-4.207538E0,2.7422788E0,-5.621492E0,-1.7674571E0,1.355422E0,5.925156E0,-6.6832113E0,-4.84688E0,-2.6760314E0,-1.2798113E0,4.6697465E-1,2.7428994E0,4.619822E0,7.6953254E0,-7.6378417E0,-6.342715E0,-5.368058E0,-4.297168E0,-3.1573873E0,-2.2631326E0,-1.5816516E0,-9.747576E-1,7.738089E-3,1.1303369E0,2.1672935E0,3.178709E0,4.314642E0,5.700764E0,7.1814036E0,8.475662E0,-4.2788425E-1,-3.7434542E-1,-3.3553013E-1,-3.0702862E-1,-2.8040144E-1,-2.5742662E-1,-2.2862773E-1,-2.0130263E-1,-1.6969661E-1,-1.4572985E-1,-1.22985624E-1,-1.0564419E-1,-8.6713664E-2,-7.141811E-2,-5.6155194E-2,-4.1326102E-2,-1.1084174E-2,1.7038425E-2,4.465812E-2,6.923959E-2,9.504037E-2,1.21685885E-1,1.4781472E-1,1.7205799E-1,2.0065124E-1,2.3232941E-1,2.6919872E-1,3.007494E-1,3.4061942E-1,3.7776488E-1,4.1408467E-1,4.5221353E-1],"categories":[],"categories_nodes":[],"categories_segments":[],"categories_sizes":[],"default_left":[0,0,0,0,0,0,0,0,0,0,0,0,0,0,0,0,0,0,0,0,0,0,0,0,0,0,0,0,0,0,0,0,0,0,0,0,0,0,0,0,0,0,0,0,0,0,0,0,0,0,0,0,0,0,0,0,0,0,0,0,0,0,0],"id":8,"left_children":[1,3,5,7,9,11,13,15,17,19,21,23,25,27,29,31,33,35,37,39,41,43,45,47,49,51,53,55,57,59,61,-1,-1,-1,-1,-1,-1,-1,-1,-1,-1,-1,-1,-1,-1,-1,-1,-1,-1,-1,-1,-1,-1,-1,-1,-1,-1,-1,-1,-1,-1,-1,-1],"loss_changes":[1.5976838E6,1.8885888E5,3.6895694E5,2.8471E4,8.895484E3,7.1766555E4,5.8579E4,4.7028125E3,5.7189688E3,1.3868945E3,1.2020938E3,1.081289E4,5.6942812E3,4.792625E3,4.25625E3,4.6878125E2,7.6046875E2,5.12875E2,7.1021875E2,1.7595117E2,1.0641992E2,1.5120703E2,1.4209619E2,1.6026566E3,8.750488E2,6.90875E2,7.447031E2,1.1219375E3,2.8734375E2,8.449375E2,3.959375E2,0E0,0E0,0E0,0E0,0E0,0E0,0E0,0E0,0E0,0E0,0E0,0E0,0E0,0E0,0E0,0E0,0E0,0E0,0E0,0E0,0E0,0E0,0E0,0E0,0E0,0E0,0E0,0E0,0E0,0E0,0E0,0E0],"parents":[2147483647,0,0,1,1,2,2,3,3,4,4,5,5,6,6,7,7,8,8,9,9,10,10,11,11,12,12,13,13,14,14,15,15,16,16,17,17,18,18,19,19,20,20,21,21,22,22,23,23,24,24,25,25,26,26,27,27,28,28,29,29,30,30],"right_children":[2,4,6,8,10,12,14,16,18,20,22,24,26,28,30,32,34,36,38,40,42,44,46,48,50,52,54,56,58,60,62,-1,-1,-1,-1,-1,-1,-1,-1,-1,-1,-1,-1,-1,-1,-1,-1,-1,-1,-1,-1,-1,-1,-1,-1,-1,-1,-1,-1,-1,-1,-1,-1],"split_conditions":[3.6939106E1,3.2328957E1,4.341483E1,2.91E1,3.492E1,4.0314247E1,4.742718E1,2.7191025E1,3.0533089E1,3.379E1,3.592495E1,3.876915E1,4.194054E1,4.544E1,4.9791523E1,2.555E1,2.8149042E1,2.9731794E1,3.1394476E1,3.317E1,3.447E1,3.551E1,3.644E1,3.801286E1,3.961046E1,4.1184017E1,4.2740036E1,4.442052E1,4.66E1,4.872559E1,5.106534E1,-4.2788425E-1,-3.7434542E-1,-3.3553013E-1,-3.0702862E-1,-2.8040144E-1,-2.5742662E-1,-2.2862773E-1,-2.0130263E-1,-1.6969661E-1,-1.4572985E-1,-1.22985624E-1,-1.0564419E-1,-8.6713664E-2,-7.141811E-2,-5.6155194E-2,-4.1326102E-2,-1.1084174E-2,1.7038425E-2,4.465812E-2,6.923959E-2,9.504037E-2,1.21685885E-1,1.4781472E-1,1.7205799E-1,2.0065124E-1,2.3232941E-1,2.6919872E-1,3.007494E-1,3.4061942E-1,3.7776488E-1,4.1408467E-1,4.5221353E-1],"split_indices":[2,2,2,2,2,2,2,2,2,2,2,2,2,2,2,2,2,2,2,2,2,2,2,2,2,2,2,2,2,2,2,0,0,0,0,0,0,0,0,0,0,0,0,0,0,0,0,0,0,0,0,0,0,0,0,0,0,0,0,0,0,0,0],"split_type":[0,0,0,0,0,0,0,0,0,0,0,0,0,0,0,0,0,0,0,0,0,0,0,0,0,0,0,0,0,0,0,0,0,0,0,0,0,0,0,0,0,0,0,0,0,0,0,0,0,0,0,0,0,0,0,0,0,0,0,0,0,0,0],"sum_hessian":[1.38326E5,5.4741E4,8.3585E4,3.4657E4,2.0084E4,5.8219E4,2.5366E4,1.4616E4,2.0041E4,7.013E3,1.3071E4,3.5493E4,2.2726E4,1.4602E4,1.0764E4,3.837E3,1.0779E4,1.0283E4,9.758E3,3.235E3,3.778E3,6.568E3,6.503E3,2.0974E4,1.4519E4,9.795E3,1.2931E4,1.1391E4,3.211E3,6.496E3,4.268E3,5.33E2,3.304E3,3.811E3,6.968E3,4.901E3,5.382E3,4.833E3,4.925E3,1.632E3,1.603E3,1.63E3,2.148E3,3.286E3,3.282E3,3.247E3,3.256E3,1.2419E4,8.555E3,7.517E3,7.002E3,4.901E3,4.894E3,7.006E3,5.925E3,5.975E3,5.416E3,1.608E3,1.603E3,3.279E3,3.217E3,3.194E3,1.074E3],"tree_param":{"num_deleted":"0","num_feature":"18","num_nodes":"63","size_leaf_vector":"1"}},{"base_weights":[-1.8982923E-3,-3.99992E0,2.606972E0,-5.4003406E0,-1.7784438E0,1.3083371E0,5.683267E0,-6.3801775E0,-4.688923E0,-2.8513758E0,-1.2987828E0,4.632383E-1,2.6526804E0,4.4262376E0,7.31985E0,-7.262582E0,-6.0498695E0,-5.1440353E0,-4.1779017E0,-3.2791183E0,-2.424201E0,-1.6489487E0,-9.7500134E-1,2.2707572E-2,1.1101233E0,2.1418815E0,3.0762868E0,4.129289E0,5.4141526E0,6.778403E0,7.9830146E0,-4.0602922E-1,-3.5585758E-1,-3.1872043E-1,-2.9288948E-1,-2.6838613E-1,-2.471592E-1,-2.2329926E-1,-1.9861545E-1,-1.751442E-1,-1.5265311E-1,-1.3170116E-1,-1.105346E-1,-9.469864E-2,-7.475922E-2,-5.835597E-2,-4.1522183E-2,-1.11910915E-2,1.6064523E-2,4.4399913E-2,6.752292E-2,9.326206E-2,1.19428836E-1,1.4253254E-1,1.642018E-1,1.9230993E-1,2.2059909E-1,2.5591055E-1,2.8566805E-1,3.2374853E-1,3.5666296E-1,3.870008E-1,4.2285538E-1],"categories":[],"categories_nodes":[],"categories_segments":[],"categories_sizes":[],"default_left":[0,0,0,0,0,0,0,0,0,0,0,0,0,0,0,0,0,0,0,0,0,0,0,0,0,0,0,0,0,0,0,0,0,0,0,0,0,0,0,0,0,0,0,0,0,0,0,0,0,0,0,0,0,0,0,0,0,0,0,0,0,0,0],"id":9,"left_children":[1,3,5,7,9,11,13,15,17,19,21,23,25,27,29,31,33,35,37,39,41,43,45,47,49,51,53,55,57,59,61,-1,-1,-1,-1,-1,-1,-1,-1,-1,-1,-1,-1,-1,-1,-1,-1,-1,-1,-1,-1,-1,-1,-1,-1,-1,-1,-1,-1,-1,-1,-1,-1],"loss_changes":[1.4418352E6,1.6980438E5,3.3417294E5,2.3307438E4,1.0858883E4,6.682548E4,5.1048688E4,4.059875E3,4.4904062E3,1.1833906E3,1.6523398E3,1.0292618E4,4.9060625E3,4.0981875E3,3.8185E3,4.20125E2,6.0165625E2,4.343125E2,5.2384375E2,1.5395703E2,1.4049023E2,2.6116406E2,2.0959912E2,1.5817183E3,7.799238E2,6.9820703E2,5.723125E2,8.476406E2,2.5791406E2,5.9384375E2,4.92375E2,0E0,0E0,0E0,0E0,0E0,0E0,0E0,0E0,0E0,0E0,0E0,0E0,0E0,0E0,0E0,0E0,0E0,0E0,0E0,0E0,0E0,0E0,0E0,0E0,0E0,0E0,0E0,0E0,0E0,0E0,0E0,0E0],"parents":[2147483647,0,0,1,1,2,2,3,3,4,4,5,5,6,6,7,7,8,8,9,9,10,10,11,11,12,12,13,13,14,14,15,15,16,16,17,17,18,18,19,19,20,20,21,21,22,22,23,23,24,24,25,25,26,26,27,27,28,28,29,29,30,30],"right_children":[2,4,6,8,10,12,14,16,18,20,22,24,26,28,30,32,34,36,38,40,42,44,46,48,50,52,54,56,58,60,62,-1,-1,-1,-1,-1,-1,-1,-1,-1,-1,-1,-1,-1,-1,-1,-1,-1,-1,-1,-1,-1,-1,-1,-1,-1,-1,-1,-1,-1,-1,-1,-1],"split_conditions":[3.6939106E1,3.2039974E1,4.3502693E1,2.9020239E1,3.460017E1,4.0389297E1,4.742718E1,2.7191025E1,3.0452871E1,3.3402405E1,3.5791294E1,3.885E1,4.2066544E1,4.544E1,4.960902E1,2.5817028E1,2.8149042E1,2.9674438E1,3.1156963E1,3.264091E1,3.4060833E1,3.52E1,3.626E1,3.797426E1,3.9663445E1,4.1279293E1,4.2740036E1,4.442052E1,4.66E1,4.872559E1,5.0784496E1,-4.0602922E-1,-3.5585758E-1,-3.1872043E-1,-2.9288948E-1,-2.6838613E-1,-2.471592E-1,-2.2329926E-1,-1.9861545E-1,-1.751442E-1,-1.5265311E-1,-1.3170116E-1,-1.105346E-1,-9.469864E-2,-7.475922E-2,-5.835597E-2,-4.1522183E-2,-1.11910915E-2,1.6064523E-2,4.4399913E-2,6.752292E-2,9.326206E-2,1.19428836E-1,1.4253254E-1,1.642018E-1,1.9230993E-1,2.2059909E-1,2.5591055E-1,2.8566805E-1,3.2374853E-1,3.5666296E-1,3.870008E-1,4.2285538E-1],"split_indices":[2,2,2,2,2,2,2,2,2,2,2,2,2,2,2,5,2,2,2,2,2,2,2,2,2,2,2,2,2,2,2,0,0,0,0,0,0,0,0,0,0,0,0,0,0,0,0,0,0,0,0,0,0,0,0,0,0,0,0,0,0,0,0],"split_type":[0,0,0,0,0,0,0,0,0,0,0,0,0,0,0,0,0,0,0,0,0,0,0,0,0,0,0,0,0,0,0,0,0,0,0,0,0,0,0,0,0,0,0,0,0,0,0,0,0,0,0,0,0,0,0,0,0,0,0,0,0,0,0],"sum_hessian":[1.38233E5,5.4584E4,8.3649E4,3.3478E4,2.1106E4,5.882E4,2.4829E4,1.4079E4,1.9399E4,6.519E3,1.4587E4,3.6117E4,2.2703E4,1.4045E4,1.0784E4,3.829E3,1.025E4,1.0256E4,9.143E3,3.254E3,3.265E3,7.006E3,7.581E3,2.1486E4,1.4631E4,1.0295E4,1.2408E4,1.0803E4,3.242E3,5.943E3,4.841E3,5.47E2,3.282E3,3.799E3,6.451E3,4.84E3,5.416E3,3.799E3,5.344E3,1.628E3,1.626E3,1.641E3,1.624E3,2.697E3,4.309E3,3.252E3,4.329E3,1.1769E4,9.717E3,7.606E3,7.025E3,4.857E3,5.438E3,5.955E3,6.453E3,5.405E3,5.398E3,1.639E3,1.603E3,3.214E3,2.729E3,3.212E3,1.629E3],"tree_param":{"num_deleted":"0","num_feature":"18","num_nodes":"63","size_leaf_vector":"1"}},{"base_weights":[-6.538944E-3,-3.828137E0,2.450994E0,-5.128025E0,-1.7145452E0,1.1091024E0,5.140533E0,-6.0519247E0,-4.4584613E0,-2.771474E0,-1.2807236E0,2.9776913E-1,2.2150745E0,3.9195046E0,6.8168135E0,-6.896305E0,-5.7428317E0,-4.892372E0,-3.9691353E0,-3.1937048E0,-2.4175384E0,-1.6192973E0,-9.685084E-1,-1.2920153E-1,7.5054765E-1,1.6336097E0,2.6582105E0,3.5726914E0,4.525866E0,6.113481E0,7.4065204E0,-3.716397E-1,-3.3385718E-1,-3.0249473E-1,-2.7816725E-1,-2.551197E-1,-2.3502612E-1,-2.1212426E-1,-1.8886535E-1,-1.6664961E-1,-1.4923285E-1,-1.3143364E-1,-1.1055293E-1,-9.34393E-2,-7.309263E-2,-5.657509E-2,-4.0344093E-2,-2.1886924E-2,9.6610666E-4,2.333007E-2,4.8851717E-2,7.0033245E-2,9.448432E-2,1.1929687E-1,1.4363965E-1,1.6615622E-1,1.9242497E-1,2.1604176E-1,2.5412956E-1,2.792904E-1,3.168277E-1,3.5097486E-1,3.896582E-1],"categories":[],"categories_nodes":[],"categories_segments":[],"categories_sizes":[],"default_left":[0,0,0,0,0,0,0,0,0,0,0,0,0,0,0,0,0,0,0,0,0,0,0,0,0,0,0,0,0,0,0,0,0,0,0,0,0,0,0,0,0,0,0,0,0,0,0,0,0,0,0,0,0,0,0,0,0,0,0,0,0,0,0],"id":10,"left_children":[1,3,5,7,9,11,13,15,17,19,21,23,25,27,29,31,33,35,37,39,41,43,45,47,49,51,53,55,57,59,61,-1,-1,-1,-1,-1,-1,-1,-1,-1,-1,-1,-1,-1,-1,-1,-1,-1,-1,-1,-1,-1,-1,-1,-1,-1,-1,-1,-1,-1,-1,-1,-1],"loss_changes":[1.2988724E6,1.4870425E5,3.0377694E5,2.0705688E4,9.448344E3,5.0388797E4,5.7318125E4,3.6351562E3,4.1073125E3,8.886367E2,1.5435625E3,6.2626074E3,6.118617E3,3.3931406E3,4.8513125E3,3.9340625E2,5.3471875E2,3.9090625E2,4.6323438E2,6.960547E1,1.3661133E2,2.7266406E2,1.9948633E2,7.640493E2,1.010626E3,6.1057227E2,7.809453E2,6.974219E2,6.509297E2,5.990625E2,9.0553125E2,0E0,0E0,0E0,0E0,0E0,0E0,0E0,0E0,0E0,0E0,0E0,0E0,0E0,0E0,0E0,0E0,0E0,0E0,0E0,0E0,0E0,0E0,0E0,0E0,0E0,0E0,0E0,0E0,0E0,0E0,0E0,0E0],"parents":[2147483647,0,0,1,1,2,2,3,3,4,4,5,5,6,6,7,7,8,8,9,9,10,10,11,11,12,12,13,13,14,14,15,15,16,16,17,17,18,18,19,19,20,20,21,21,22,22,23,23,24,24,25,25,26,26,27,27,28,28,29,29,30,30],"right_children":[2,4,6,8,10,12,14,16,18,20,22,24,26,28,30,32,34,36,38,40,42,44,46,48,50,52,54,56,58,60,62,-1,-1,-1,-1,-1,-1,-1,-1,-1,-1,-1,-1,-1,-1,-1,-1,-1,-1,-1,-1,-1,-1,-1,-1,-1,-1,-1,-1,-1,-1,-1,-1],"split_conditions":[3.684943E1,3.2042156E1,4.30505E1,2.9016174E1,3.4475777E1,3.992175E1,4.6855003E1,2.7199245E1,3.044913E1,3.31733E1,3.573238E1,3.8331E1,4.143213E1,4.466515E1,4.90714E1,2.62845E1,2.815375E1,2.9674746E1,3.1155865E1,3.263065E1,3.378446E1,3.510125E1,3.625701E1,3.7453674E1,3.908225E1,4.0572414E1,4.2229E1,4.38667E1,4.5490707E1,4.777769E1,5.00815E1,-3.716397E-1,-3.3385718E-1,-3.0249473E-1,-2.7816725E-1,-2.551197E-1,-2.3502612E-1,-2.1212426E-1,-1.8886535E-1,-1.6664961E-1,-1.4923285E-1,-1.3143364E-1,-1.1055293E-1,-9.34393E-2,-7.309263E-2,-5.657509E-2,-4.0344093E-2,-2.1886924E-2,9.6610666E-4,2.333007E-2,4.8851717E-2,7.0033245E-2,9.448432E-2,1.1929687E-1,1.4363965E-1,1.6615622E-1,1.9242497E-1,2.1604176E-1,2.5412956E-1,2.792904E-1,3.168277E-1,3.5097486E-1,3.896582E-1],"split_indices":[4,4,4,4,4,4,4,4,4,4,4,4,4,4,4,4,4,4,4,4,4,4,4,4,4,4,4,4,6,4,4,0,0,0,0,0,0,0,0,0,0,0,0,0,0,0,0,0,0,0,0,0,0,0,0,0,0,0,0,0,0,0,0],"split_type":[0,0,0,0,0,0,0,0,0,0,0,0,0,0,0,0,0,0,0,0,0,0,0,0,0,0,0,0,0,0,0,0,0,0,0,0,0,0,0,0,0,0,0,0,0,0,0,0,0,0,0,0,0,0,0,0,0,0,0,0,0,0,0],"sum_hessian":[1.38298E5,5.4127E4,8.4171E4,3.3514E4,2.0613E4,5.6155E4,2.8016E4,1.4079E4,1.9435E4,5.997E3,1.4616E4,3.2393E4,2.3762E4,1.6211E4,1.1805E4,3.767E3,1.0312E4,1.0296E4,9.139E3,2.731E3,3.266E3,7.01E3,7.606E3,1.6672E4,1.5721E4,1.0279E4,1.3483E4,1.0317E4,5.894E3,5.389E3,6.416E3,1.083E3,2.684E3,3.792E3,6.52E3,4.903E3,5.393E3,3.76E3,5.379E3,1.63E3,1.101E3,1.609E3,1.657E3,2.708E3,4.302E3,3.784E3,3.822E3,5.417E3,1.1255E4,6.977E3,8.744E3,5.386E3,4.893E3,5.948E3,7.535E3,5.423E3,4.894E3,4.314E3,1.58E3,1.609E3,3.78E3,3.216E3,3.2E3],"tree_param":{"num_deleted":"0","num_feature":"18","num_nodes":"63","size_leaf_vector":"1"}},{"base_weights":[-3.0387286E-3,-3.5815382E0,2.3729928E0,-4.819503E0,-1.4933039E0,1.1966872E0,5.1338744E0,-5.5707574E0,-4.017124E0,-2.2959583E0,-1.0780072E0,4.326353E-1,2.3913784E0,3.9942873E0,6.608185E0,-6.3051624E0,-5.200745E0,-4.382721E0,-3.5746439E0,-2.7024715E0,-1.9412332E0,-1.3342732E0,-7.992793E-1,3.4828953E-2,1.0019604E0,1.9085276E0,2.7576797E0,3.6978722E0,4.803178E0,6.160729E0,7.276403E0,-3.4083667E-1,-3.0063677E-1,-2.7072546E-1,-2.4728933E-1,-2.2758229E-1,-2.0695524E-1,-1.858448E-1,-1.6573386E-1,-1.5002249E-1,-1.2770772E-1,-1.086142E-1,-9.2318304E-2,-7.440512E-2,-6.0224522E-2,-4.701143E-2,-3.490753E-2,-8.169955E-3,1.599696E-2,3.9233323E-2,6.0183037E-2,8.41146E-2,1.06638454E-1,1.2760742E-1,1.4825895E-1,1.7219502E-1,1.9636275E-1,2.2178833E-1,2.5380155E-1,2.920585E-1,3.2394412E-1,3.550036E-1,3.89529E-1],"categories":[],"categories_nodes":[],"categories_segments":[],"categories_sizes":[],"default_left":[0,0,0,0,0,0,0,0,0,0,0,0,0,0,0,0,0,0,0,0,0,0,0,0,0,0,0,0,0,0,0,0,0,0,0,0,0,0,0,0,0,0,0,0,0,0,0,0,0,0,0,0,0,0,0,0,0,0,0,0,0,0,0],"id":11,"left_children":[1,3,5,7,9,11,13,15,17,19,21,23,25,27,29,31,33,35,37,39,41,43,45,47,49,51,53,55,57,59,61,-1,-1,-1,-1,-1,-1,-1,-1,-1,-1,-1,-1,-1,-1,-1,-1,-1,-1,-1,-1,-1,-1,-1,-1,-1,-1,-1,-1,-1,-1,-1,-1],"loss_changes":[1.1770698E6,1.42797E5,2.701845E5,2.0882375E4,6.8513203E3,5.3252992E4,4.1734312E4,4.8335E3,2.6976875E3,1.00559766E3,9.669336E2,8.0592964E3,4.0197422E3,3.3442656E3,3.1948438E3,8.558594E2,6.225625E2,3.589375E2,2.685078E2,1.3658984E2,7.812012E1,1.3913574E2,9.190918E1,1.1840237E3,6.4056934E2,4.9459766E2,5.442031E2,5.845469E2,3.54125E2,6.225781E2,3.3817188E2,0E0,0E0,0E0,0E0,0E0,0E0,0E0,0E0,0E0,0E0,0E0,0E0,0E0,0E0,0E0,0E0,0E0,0E0,0E0,0E0,0E0,0E0,0E0,0E0,0E0,0E0,0E0,0E0,0E0,0E0,0E0,0E0],"parents":[2147483647,0,0,1,1,2,2,3,3,4,4,5,5,6,6,7,7,8,8,9,9,10,10,11,11,12,12,13,13,14,14,15,15,16,16,17,17,18,18,19,19,20,20,21,21,22,22,23,23,24,24,25,25,26,26,27,27,28,28,29,29,30,30],"right_children":[2,4,6,8,10,12,14,16,18,20,22,24,26,28,30,32,34,36,38,40,42,44,46,48,50,52,54,56,58,60,62,-1,-1,-1,-1,-1,-1,-1,-1,-1,-1,-1,-1,-1,-1,-1,-1,-1,-1,-1,-1,-1,-1,-1,-1,-1,-1,-1,-1,-1,-1,-1,-1],"split_conditions":[3.700722E1,3.2328957E1,4.3502693E1,2.9550653E1,3.492E1,4.0389297E1,4.742718E1,2.79E1,3.096E1,3.379E1,3.602E1,3.885E1,4.2002914E1,4.526E1,4.9791523E1,2.6626534E1,2.8786385E1,3.0278608E1,3.17E1,3.2883102E1,3.430292E1,3.551E1,3.644E1,3.805E1,3.961046E1,4.1279293E1,4.2740036E1,4.435483E1,4.5947556E1,4.872559E1,5.106534E1,-3.4083667E-1,-3.0063677E-1,-2.7072546E-1,-2.4728933E-1,-2.2758229E-1,-2.0695524E-1,-1.858448E-1,-1.6573386E-1,-1.5002249E-1,-1.2770772E-1,-1.086142E-1,-9.2318304E-2,-7.440512E-2,-6.0224522E-2,-4.701143E-2,-3.490753E-2,-8.169955E-3,1.599696E-2,3.9233323E-2,6.0183037E-2,8.41146E-2,1.06638454E-1,1.2760742E-1,1.4825895E-1,1.7219502E-1,1.9636275E-1,2.2178833E-1,2.5380155E-1,2.920585E-1,3.2394412E-1,3.550036E-1,3.89529E-1],"split_indices":[2,2,2,2,2,2,2,2,2,2,2,2,2,2,2,2,2,2,2,2,2,2,2,2,2,2,2,2,6,2,2,0,0,0,0,0,0,0,0,0,0,0,0,0,0,0,0,0,0,0,0,0,0,0,0,0,0,0,0,0,0,0,0],"split_type":[0,0,0,0,0,0,0,0,0,0,0,0,0,0,0,0,0,0,0,0,0,0,0,0,0,0,0,0,0,0,0,0,0,0,0,0,0,0,0,0,0,0,0,0,0,0,0,0,0,0,0,0,0,0,0,0,0,0,0,0,0,0,0],"sum_hessian":[1.38434E5,5.5239E4,8.3195E4,3.4679E4,2.056E4,5.834E4,2.4855E4,1.7907E4,1.6772E4,7.009E3,1.3551E4,3.5584E4,2.2756E4,1.4021E4,1.0834E4,5.994E3,1.1913E4,9.179E3,7.593E3,3.263E3,3.746E3,7.058E3,6.493E3,2.0948E4,1.4636E4,9.819E3,1.2937E4,1.0265E4,3.756E3,6.495E3,4.339E3,2.172E3,3.822E3,6.469E3,5.444E3,5.41E3,3.769E3,4.899E3,2.694E3,1.078E3,2.185E3,1.084E3,2.662E3,3.225E3,3.833E3,2.709E3,3.784E3,1.2357E4,8.591E3,7.048E3,7.588E3,4.892E3,4.927E3,6.506E3,6.431E3,4.879E3,5.386E3,1.608E3,2.148E3,3.25E3,3.245E3,3.242E3,1.097E3],"tree_param":{"num_deleted":"0","num_feature":"18","num_nodes":"63","size_leaf_vector":"1"}},{"base_weights":[-2.1269661E-3,-3.4011743E0,2.2496455E0,-4.5797877E0,-1.4156442E0,1.1503707E0,4.910804E0,-5.3144665E0,-3.8401215E0,-2.1787152E0,-1.0231354E0,3.932347E-1,2.268352E0,3.8280103E0,6.2748623E0,-6.03958E0,-4.9829106E0,-4.183091E0,-3.3952048E0,-2.6386738E0,-1.8928694E0,-1.269182E0,-7.5758284E-1,2.0360533E-2,9.214418E-1,1.7638692E0,2.619324E0,3.5710955E0,4.6476235E0,5.8501472E0,6.9072447E0,-3.237547E-1,-2.876456E-1,-2.6057884E-1,-2.3793612E-1,-2.1716474E-1,-1.96581E-1,-1.7550981E-1,-1.5525351E-1,-1.4262052E-1,-1.24653116E-1,-1.0602921E-1,-8.774554E-2,-6.974767E-2,-5.6160104E-2,-4.4623856E-2,-3.3153083E-2,-9.366722E-3,1.2572019E-2,3.3852372E-2,5.4506566E-2,7.579805E-2,9.810222E-2,1.1954411E-1,1.4081433E-1,1.685962E-1,1.9216073E-1,2.1931992E-1,2.4512379E-1,2.772629E-1,3.077131E-1,3.37244E-1,3.6990342E-1],"categories":[],"categories_nodes":[],"categories_segments":[],"categories_sizes":[],"default_left":[0,0,0,0,0,0,0,0,0,0,0,0,0,0,0,0,0,0,0,0,0,0,0,0,0,0,0,0,0,0,0,0,0,0,0,0,0,0,0,0,0,0,0,0,0,0,0,0,0,0,0,0,0,0,0,0,0,0,0,0,0,0,0],"id":12,"left_children":[1,3,5,7,9,11,13,15,17,19,21,23,25,27,29,31,33,35,37,39,41,43,45,47,49,51,53,55,57,59,61,-1,-1,-1,-1,-1,-1,-1,-1,-1,-1,-1,-1,-1,-1,-1,-1,-1,-1,-1,-1,-1,-1,-1,-1,-1,-1,-1,-1,-1,-1,-1,-1],"loss_changes":[1.0606136E6,1.292155E5,2.4383056E5,1.8809E4,6.1587344E3,4.993032E4,3.5964375E4,4.1485625E3,2.6210625E3,9.135039E2,8.866592E2,6.9270776E3,4.212586E3,2.8442344E3,2.8552188E3,6.4303125E2,5.869375E2,3.75625E2,2.4009375E2,7.6140625E1,1.3174121E2,1.2787207E2,8.274487E1,9.8958984E2,5.992754E2,4.7726367E2,6.2516406E2,5.47875E2,1.94125E2,5.644844E2,2.9484375E2,0E0,0E0,0E0,0E0,0E0,0E0,0E0,0E0,0E0,0E0,0E0,0E0,0E0,0E0,0E0,0E0,0E0,0E0,0E0,0E0,0E0,0E0,0E0,0E0,0E0,0E0,0E0,0E0,0E0,0E0,0E0,0E0],"parents":[2147483647,0,0,1,1,2,2,3,3,4,4,5,5,6,6,7,7,8,8,9,9,10,10,11,11,12,12,13,13,14,14,15,15,16,16,17,17,18,18,19,19,20,20,21,21,22,22,23,23,24,24,25,25,26,26,27,27,28,28,29,29,30,30],"right_children":[2,4,6,8,10,12,14,16,18,20,22,24,26,28,30,32,34,36,38,40,42,44,46,48,50,52,54,56,58,60,62,-1,-1,-1,-1,-1,-1,-1,-1,-1,-1,-1,-1,-1,-1,-1,-1,-1,-1,-1,-1,-1,-1,-1,-1,-1,-1,-1,-1,-1,-1,-1,-1],"split_conditions":[3.700722E1,3.2328957E1,4.359E1,2.9466799E1,3.492E1,4.0314247E1,4.742718E1,2.7786E1,3.096E1,3.3565228E1,3.602E1,3.876915E1,4.194054E1,4.544E1,4.9791523E1,2.6626534E1,2.8638845E1,3.0278608E1,3.1803497E1,3.2883102E1,3.430292E1,3.557858E1,3.644E1,3.7935318E1,3.945922E1,4.109608E1,4.2682804E1,4.4593334E1,4.66E1,4.872559E1,5.106534E1,-3.237547E-1,-2.876456E-1,-2.6057884E-1,-2.3793612E-1,-2.1716474E-1,-1.96581E-1,-1.7550981E-1,-1.5525351E-1,-1.4262052E-1,-1.24653116E-1,-1.0602921E-1,-8.774554E-2,-6.974767E-2,-5.6160104E-2,-4.4623856E-2,-3.3153083E-2,-9.366722E-3,1.2572019E-2,3.3852372E-2,5.4506566E-2,7.579805E-2,9.810222E-2,1.1954411E-1,1.4081433E-1,1.685962E-1,1.9216073E-1,2.1931992E-1,2.4512379E-1,2.772629E-1,3.077131E-1,3.37244E-1,3.6990342E-1],"split_indices":[2,2,2,2,2,2,2,2,2,2,2,2,2,2,2,2,2,2,2,2,2,2,2,2,2,2,2,2,2,2,2,0,0,0,0,0,0,0,0,0,0,0,0,0,0,0,0,0,0,0,0,0,0,0,0,0,0,0,0,0,0,0,0],"split_type":[0,0,0,0,0,0,0,0,0,0,0,0,0,0,0,0,0,0,0,0,0,0,0,0,0,0,0,0,0,0,0,0,0,0,0,0,0,0,0,0,0,0,0,0,0,0,0,0,0,0,0,0,0,0,0,0,0,0,0,0,0,0,0],"sum_hessian":[1.3857E5,5.5218E4,8.3352E4,3.4649E4,2.0569E4,5.8987E4,2.4365E4,1.738E4,1.7269E4,6.985E3,1.3584E4,3.517E4,2.3817E4,1.3585E4,1.078E4,5.448E3,1.1932E4,9.747E3,7.522E3,2.674E3,4.311E3,7.049E3,6.535E3,2.0617E4,1.4553E4,9.774E3,1.4043E4,1.0347E4,3.238E3,6.455E3,4.325E3,2.154E3,3.294E3,5.896E3,6.036E3,5.944E3,3.803E3,5.379E3,2.143E3,1.076E3,1.598E3,1.621E3,2.69E3,3.782E3,3.267E3,2.689E3,3.846E3,1.0858E4,9.759E3,5.945E3,8.608E3,4.346E3,5.428E3,6.508E3,7.535E3,5.982E3,4.365E3,1.608E3,1.63E3,3.233E3,3.222E3,3.261E3,1.064E3],"tree_param":{"num_deleted":"0","num_feature":"18","num_nodes":"63","size_leaf_vector":"1"}},{"base_weights":[-1.7632701E-3,-3.394584E0,2.0340466E0,-4.4193506E0,-1.6101758E0,8.0593884E-1,4.2532673E0,-5.1930046E0,-3.84401E0,-2.485983E0,-1.2074138E0,1.4574261E-1,1.7325503E0,3.213775E0,5.7953606E0,-5.918881E0,-4.924344E0,-4.213325E0,-3.4527822E0,-2.7776482E0,-2.1342945E0,-1.5448294E0,-1.0037339E0,-2.0914139E-1,5.458608E-1,1.2701932E0,2.137393E0,2.8353238E0,3.646432E0,5.180568E0,6.3556414E0,-3.3388394E-1,-2.8953186E-1,-2.5801533E-1,-2.375495E-1,-2.178181E-1,-2.0161214E-1,-1.8431753E-1,-1.6436367E-1,-1.443709E-1,-1.2793887E-1,-1.1267103E-1,-9.7654365E-2,-8.331516E-2,-6.95463E-2,-5.6928124E-2,-4.2376164E-2,-2.5974656E-2,-2.4143397E-3,1.706163E-2,3.7499543E-2,5.668654E-2,7.602709E-2,9.6207745E-2,1.1673013E-1,1.3473417E-1,1.5272965E-1,1.7372327E-1,2.0121486E-1,2.3673137E-1,2.7173638E-1,3.0333254E-1,3.3792174E-1],"categories":[],"categories_nodes":[],"categories_segments":[],"categories_sizes":[],"default_left":[0,0,0,0,0,0,0,0,0,0,0,0,0,0,0,0,0,0,0,0,0,0,0,0,0,0,0,0,0,0,0,0,0,0,0,0,0,0,0,0,0,0,0,0,0,0,0,0,0,0,0,0,0,0,0,0,0,0,0,0,0,0,0],"id":13,"left_children":[1,3,5,7,9,11,13,15,17,19,21,23,25,27,29,31,33,35,37,39,41,43,45,47,49,51,53,55,57,59,61,-1,-1,-1,-1,-1,-1,-1,-1,-1,-1,-1,-1,-1,-1,-1,-1,-1,-1,-1,-1,-1,-1,-1,-1,-1,-1,-1,-1,-1,-1,-1,-1],"loss_changes":[9.580683E5,9.511125E4,2.3626516E5,1.46870625E4,6.6909766E3,3.4140035E4,4.9486688E4,2.718375E3,2.7239062E3,6.0716797E2,8.9193945E2,4.6277495E3,4.343461E3,3.0106562E3,4.2500312E3,3.3121875E2,3.9634375E2,2.3484375E2,3.43875E2,7.103125E1,5.4183594E1,8.913965E1,1.6984521E2,8.62219E2,6.396299E2,3.6867188E2,5.1603516E2,2.9540625E2,5.451719E2,6.468281E2,7.1575E2,0E0,0E0,0E0,0E0,0E0,0E0,0E0,0E0,0E0,0E0,0E0,0E0,0E0,0E0,0E0,0E0,0E0,0E0,0E0,0E0,0E0,0E0,0E0,0E0,0E0,0E0,0E0,0E0,0E0,0E0,0E0,0E0],"parents":[2147483647,0,0,1,1,2,2,3,3,4,4,5,5,6,6,7,7,8,8,9,9,10,10,11,11,12,12,13,13,14,14,15,15,16,16,17,17,18,18,19,19,20,20,21,21,22,22,23,23,24,24,25,25,26,26,27,27,28,28,29,29,30,30],"right_children":[2,4,6,8,10,12,14,16,18,20,22,24,26,28,30,32,34,36,38,40,42,44,46,48,50,52,54,56,58,60,62,-1,-1,-1,-1,-1,-1,-1,-1,-1,-1,-1,-1,-1,-1,-1,-1,-1,-1,-1,-1,-1,-1,-1,-1,-1,-1,-1,-1,-1,-1,-1,-1],"split_conditions":[3.6538E1,3.189E1,4.280812E1,2.9016174E1,3.430937E1,3.971393E1,4.660561E1,2.7199245E1,3.03625E1,3.31733E1,3.5376507E1,3.8187664E1,4.1183186E1,4.4218246E1,4.8927658E1,2.5576E1,2.82245E1,2.9729E1,3.106025E1,3.263065E1,3.378446E1,3.491711E1,3.5920994E1,3.732435E1,3.894155E1,4.045124E1,4.2070156E1,4.350881E1,4.515663E1,4.777769E1,5.037054E1,-3.3388394E-1,-2.8953186E-1,-2.5801533E-1,-2.375495E-1,-2.178181E-1,-2.0161214E-1,-1.8431753E-1,-1.6436367E-1,-1.443709E-1,-1.2793887E-1,-1.1267103E-1,-9.7654365E-2,-8.331516E-2,-6.95463E-2,-5.6928124E-2,-4.2376164E-2,-2.5974656E-2,-2.4143397E-3,1.706163E-2,3.7499543E-2,5.668654E-2,7.602709E-2,9.6207745E-2,1.1673013E-1,1.3473417E-1,1.5272965E-1,1.7372327E-1,2.0121486E-1,2.3673137E-1,2.7173638E-1,3.0333254E-1,3.3792174E-1],"split_indices":[4,4,4,4,4,4,4,4,4,4,4,4,4,4,6,4,4,4,4,4,4,4,4,4,4,4,4,4,4,4,4,0,0,0,0,0,0,0,0,0,0,0,0,0,0,0,0,0,0,0,0,0,0,0,0,0,0,0,0,0,0,0,0],"split_type":[0,0,0,0,0,0,0,0,0,0,0,0,0,0,0,0,0,0,0,0,0,0,0,0,0,0,0,0,0,0,0,0,0,0,0,0,0,0,0,0,0,0,0,0,0,0,0,0,0,0,0,0,0,0,0,0,0,0,0,0,0,0,0],"sum_hessian":[1.38705E5,5.2016E4,8.6689E4,3.304E4,1.8976E4,5.5807E4,3.0882E4,1.4088E4,1.8952E4,5.976E3,1.3E4,3.2589E4,2.3218E4,1.8449E4,1.2433E4,3.8E3,1.0288E4,9.744E3,9.208E3,3.263E3,2.713E3,4.891E3,8.109E3,1.7271E4,1.5318E4,1.0841E4,1.2377E4,9.845E3,8.604E3,5.933E3,6.5E3,5.42E2,3.258E3,4.345E3,5.943E3,5.431E3,4.313E3,3.81E3,5.398E3,2.165E3,1.098E3,1.63E3,1.083E3,2.728E3,2.163E3,4.349E3,3.76E3,5.895E3,1.1376E4,7.651E3,7.667E3,7.02E3,3.821E3,5.952E3,6.425E3,6.006E3,3.839E3,5.92E3,2.684E3,2.161E3,3.772E3,3.794E3,2.706E3],"tree_param":{"num_deleted":"0","num_feature":"18","num_nodes":"63","size_leaf_vector":"1"}},{"base_weights":[-1.2542483E-4,-3.0430532E0,2.0538988E0,-4.129931E0,-1.2623016E0,1.0576321E0,4.4395075E0,-4.912498E0,-3.5626976E0,-2.0104618E0,-9.2928475E-1,3.9853746E-1,2.0895994E0,3.4554703E0,5.668234E0,-5.7016826E0,-4.6865926E0,-3.9243975E0,-3.136228E0,-2.3818228E0,-1.7427391E0,-1.1868012E0,-6.919392E-1,4.55011E-2,8.729104E-1,1.6968533E0,2.4136157E0,3.2205637E0,4.196724E0,5.319617E0,6.3090353E0,-3.176851E-1,-2.7841446E-1,-2.4981944E-1,-2.2648667E-1,-2.0373075E-1,-1.8480206E-1,-1.6617316E-1,-1.4625786E-1,-1.2866567E-1,-1.1252671E-1,-9.873949E-2,-8.244566E-2,-6.7683175E-2,-5.4146606E-2,-4.126308E-2,-2.9577523E-2,-5.3389957E-3,1.52536845E-2,3.5398025E-2,5.4665517E-2,7.4457034E-2,9.421714E-2,1.131171E-1,1.3033848E-1,1.5198164E-1,1.73407E-1,1.9809446E-1,2.2134863E-1,2.5248852E-1,2.8161E-1,3.0749354E-1,3.3434176E-1],"categories":[],"categories_nodes":[],"categories_segments":[],"categories_sizes":[],"default_left":[0,0,0,0,0,0,0,0,0,0,0,0,0,0,0,0,0,0,0,0,0,0,0,0,0,0,0,0,0,0,0,0,0,0,0,0,0,0,0,0,0,0,0,0,0,0,0,0,0,0,0,0,0,0,0,0,0,0,0,0,0,0,0],"id":14,"left_children":[1,3,5,7,9,11,13,15,17,19,21,23,25,27,29,31,33,35,37,39,41,43,45,47,49,51,53,55,57,59,61,-1,-1,-1,-1,-1,-1,-1,-1,-1,-1,-1,-1,-1,-1,-1,-1,-1,-1,-1,-1,-1,-1,-1,-1,-1,-1,-1,-1,-1,-1,-1,-1],"loss_changes":[8.64803E5,1.0791406E5,1.963204E5,1.53525E4,5.263918E3,3.9633E4,2.9402938E4,2.5669062E3,3.0847969E3,6.429844E2,8.9318555E2,5.955392E3,2.8860234E3,2.3398125E3,2.3835938E3,2.4580469E2,5.2725E2,3.5746875E2,3.5460938E2,6.2691406E1,7.917383E1,1.20100586E2,1.0141821E2,8.059685E2,5.5083887E2,3.9714453E2,3.5764062E2,4.4935938E2,1.5813281E2,5.631875E2,1.8779688E2,0E0,0E0,0E0,0E0,0E0,0E0,0E0,0E0,0E0,0E0,0E0,0E0,0E0,0E0,0E0,0E0,0E0,0E0,0E0,0E0,0E0,0E0,0E0,0E0,0E0,0E0,0E0,0E0,0E0,0E0,0E0,0E0],"parents":[2147483647,0,0,1,1,2,2,3,3,4,4,5,5,6,6,7,7,8,8,9,9,10,10,11,11,12,12,13,13,14,14,15,15,16,16,17,17,18,18,19,19,20,20,21,21,22,22,23,23,24,24,25,25,26,26,27,27,28,28,29,29,30,30],"right_children":[2,4,6,8,10,12,14,16,18,20,22,24,26,28,30,32,34,36,38,40,42,44,46,48,50,52,54,56,58,60,62,-1,-1,-1,-1,-1,-1,-1,-1,-1,-1,-1,-1,-1,-1,-1,-1,-1,-1,-1,-1,-1,-1,-1,-1,-1,-1,-1,-1,-1,-1,-1,-1],"split_conditions":[3.708675E1,3.2328957E1,4.359E1,2.91E1,3.4795033E1,4.046E1,4.742718E1,2.6971632E1,3.0630972E1,3.3565228E1,3.592495E1,3.885E1,4.212587E1,4.544E1,4.992E1,2.555E1,2.808E1,2.9898397E1,3.1461773E1,3.2883102E1,3.4060833E1,3.537E1,3.644E1,3.813105E1,3.977E1,4.1349194E1,4.2908157E1,4.4593334E1,4.66E1,4.8917484E1,5.106534E1,-3.176851E-1,-2.7841446E-1,-2.4981944E-1,-2.2648667E-1,-2.0373075E-1,-1.8480206E-1,-1.6617316E-1,-1.4625786E-1,-1.2866567E-1,-1.1252671E-1,-9.873949E-2,-8.244566E-2,-6.7683175E-2,-5.4146606E-2,-4.126308E-2,-2.9577523E-2,-5.3389957E-3,1.52536845E-2,3.5398025E-2,5.4665517E-2,7.4457034E-2,9.421714E-2,1.131171E-1,1.3033848E-1,1.5198164E-1,1.73407E-1,1.9809446E-1,2.2134863E-1,2.5248852E-1,2.8161E-1,3.0749354E-1,3.3434176E-1],"split_indices":[2,2,2,2,2,2,2,2,2,2,2,2,2,2,2,2,2,2,2,2,2,2,2,2,2,2,2,2,2,2,2,0,0,0,0,0,0,0,0,0,0,0,0,0,0,0,0,0,0,0,0,0,0,0,0,0,0,0,0,0,0,0,0],"split_type":[0,0,0,0,0,0,0,0,0,0,0,0,0,0,0,0,0,0,0,0,0,0,0,0,0,0,0,0,0,0,0,0,0,0,0,0,0,0,0,0,0,0,0,0,0,0,0,0,0,0,0,0,0,0,0,0,0,0,0,0,0,0,0],"sum_hessian":[1.38361E5,5.5758E4,8.2603E4,3.4624E4,2.1134E4,5.827E4,2.4333E4,1.4547E4,2.0077E4,6.508E3,1.4626E4,3.556E4,2.271E4,1.3514E4,1.0819E4,3.232E3,1.1315E4,1.0859E4,9.218E3,2.723E3,3.785E3,7.013E3,7.613E3,2.0388E4,1.5172E4,1.0269E4,1.2441E4,1.0266E4,3.248E3,7.013E3,3.806E3,5.41E2,2.691E3,3.793E3,7.522E3,6.54E3,4.319E3,4.877E3,4.341E3,1.1E3,1.623E3,1.084E3,2.701E3,2.686E3,4.327E3,3.267E3,4.346E3,1.285E4,7.538E3,8.68E3,6.492E3,4.876E3,5.393E3,6.984E3,5.457E3,5.939E3,4.327E3,1.617E3,1.631E3,3.773E3,3.24E3,2.69E3,1.116E3],"tree_param":{"num_deleted":"0","num_feature":"18","num_nodes":"63","size_leaf_vector":"1"}},{"base_weights":[2.283271E-3,-2.8899662E0,1.9465235E0,-3.9255967E0,-1.1999133E0,1.0032665E0,4.2239413E0,-4.541908E0,-3.2705107E0,-1.8674552E0,-8.639688E-1,3.8978747E-1,2.003637E0,3.2847438E0,5.388802E0,-5.145913E0,-4.2388077E0,-3.568513E0,-2.9099977E0,-2.2611604E0,-1.6227647E0,-1.0885394E0,-6.3956267E-1,5.439869E-2,8.5951453E-1,1.6504842E0,2.3073108E0,3.0605352E0,3.985894E0,4.980677E0,5.876943E0,-2.7466673E-1,-2.4249911E-1,-2.2072022E-1,-2.0129564E-1,-1.8602057E-1,-1.6971594E-1,-1.5142766E-1,-1.3458493E-1,-1.22321084E-1,-1.0688336E-1,-9.080884E-2,-7.5285554E-2,-6.0011555E-2,-4.8025552E-2,-3.8238768E-2,-2.801373E-2,-5.5118175E-3,1.4422232E-2,3.5113312E-2,5.3305876E-2,7.387232E-2,9.2205815E-2,1.0827916E-1,1.2379608E-1,1.4340584E-1,1.6364802E-1,1.8364295E-1,2.070899E-1,2.3544152E-1,2.6007053E-1,2.8192273E-1,3.0851573E-1],"categories":[],"categories_nodes":[],"categories_segments":[],"categories_sizes":[],"default_left":[0,0,0,0,0,0,0,0,0,0,0,0,0,0,0,0,0,0,0,0,0,0,0,0,0,0,0,0,0,0,0,0,0,0,0,0,0,0,0,0,0,0,0,0,0,0,0,0,0,0,0,0,0,0,0,0,0,0,0,0,0,0,0],"id":15,"left_children":[1,3,5,7,9,11,13,15,17,19,21,23,25,27,29,31,33,35,37,39,41,43,45,47,49,51,53,55,57,59,61,-1,-1,-1,-1,-1,-1,-1,-1,-1,-1,-1,-1,-1,-1,-1,-1,-1,-1,-1,-1,-1,-1,-1,-1,-1,-1,-1,-1,-1,-1,-1,-1],"loss_changes":[7.78311E5,9.738034E4,1.7780147E5,1.3913625E4,4.739627E3,3.5919445E4,2.6502812E4,3.2319375E3,1.7866406E3,6.780996E2,7.0816016E2,5.715863E3,2.38225E3,2.0979531E3,2.126125E3,5.834531E2,4.24875E2,2.295625E2,1.8789453E2,5.6771484E1,9.615527E1,9.936035E1,6.94436E1,8.157192E2,4.902744E2,3.4204883E2,2.8044922E2,4.065078E2,1.4335156E2,3.2948438E2,3.0951562E2,0E0,0E0,0E0,0E0,0E0,0E0,0E0,0E0,0E0,0E0,0E0,0E0,0E0,0E0,0E0,0E0,0E0,0E0,0E0,0E0,0E0,0E0,0E0,0E0,0E0,0E0,0E0,0E0,0E0,0E0,0E0,0E0],"parents":[2147483647,0,0,1,1,2,2,3,3,4,4,5,5,6,6,7,7,8,8,9,9,10,10,11,11,12,12,13,13,14,14,15,15,16,16,17,17,18,18,19,19,20,20,21,21,22,22,23,23,24,24,25,25,26,26,27,27,28,28,29,29,30,30],"right_children":[2,4,6,8,10,12,14,16,18,20,22,24,26,28,30,32,34,36,38,40,42,44,46,48,50,52,54,56,58,60,62,-1,-1,-1,-1,-1,-1,-1,-1,-1,-1,-1,-1,-1,-1,-1,-1,-1,-1,-1,-1,-1,-1,-1,-1,-1,-1,-1,-1,-1,-1,-1,-1],"split_conditions":[3.708675E1,3.2328957E1,4.359E1,2.9550653E1,3.492E1,4.0574062E1,4.743499E1,2.79E1,3.096E1,3.3565228E1,3.602E1,3.8946064E1,4.218E1,4.544E1,4.960902E1,2.6852081E1,2.8786385E1,3.0193542E1,3.17E1,3.2883102E1,3.430292E1,3.557858E1,3.644E1,3.8089546E1,3.982E1,4.15E1,4.2908157E1,4.450614E1,4.613675E1,4.8525158E1,5.059994E1,-2.7466673E-1,-2.4249911E-1,-2.2072022E-1,-2.0129564E-1,-1.8602057E-1,-1.6971594E-1,-1.5142766E-1,-1.3458493E-1,-1.22321084E-1,-1.0688336E-1,-9.080884E-2,-7.5285554E-2,-6.0011555E-2,-4.8025552E-2,-3.8238768E-2,-2.801373E-2,-5.5118175E-3,1.4422232E-2,3.5113312E-2,5.3305876E-2,7.387232E-2,9.2205815E-2,1.0827916E-1,1.2379608E-1,1.4340584E-1,1.6364802E-1,1.8364295E-1,2.070899E-1,2.3544152E-1,2.6007053E-1,2.8192273E-1,3.0851573E-1],"split_indices":[2,2,2,2,2,2,4,2,2,2,2,2,2,2,2,2,2,2,2,2,2,2,2,2,2,2,2,2,4,2,2,0,0,0,0,0,0,0,0,0,0,0,0,0,0,0,0,0,0,0,0,0,0,0,0,0,0,0,0,0,0,0,0],"split_type":[0,0,0,0,0,0,0,0,0,0,0,0,0,0,0,0,0,0,0,0,0,0,0,0,0,0,0,0,0,0,0,0,0,0,0,0,0,0,0,0,0,0,0,0,0,0,0,0,0,0,0,0,0,0,0,0,0,0,0,0,0,0,0],"sum_hessian":[1.38408E5,5.5639E4,8.2769E4,3.4498E4,2.1141E4,5.8529E4,2.424E4,1.7772E4,1.6726E4,7.076E3,1.4065E4,3.6281E4,2.2248E4,1.3422E4,1.0818E4,5.933E3,1.1839E4,9.152E3,7.574E3,2.709E3,4.367E3,7.028E3,7.037E3,2.1168E4,1.5113E4,1.0289E4,1.1959E4,1.0174E4,3.248E3,5.898E3,4.92E3,2.721E3,3.212E3,6.477E3,5.362E3,4.878E3,4.274E3,4.9E3,2.674E3,1.076E3,1.633E3,1.641E3,2.726E3,3.749E3,3.279E3,2.725E3,4.312E3,1.2427E4,8.741E3,8.584E3,6.529E3,5.438E3,4.851E3,6.505E3,5.454E3,5.346E3,4.828E3,1.088E3,2.16E3,2.653E3,3.245E3,2.725E3,2.195E3],"tree_param":{"num_deleted":"0","num_feature":"18","num_nodes":"63","size_leaf_vector":"1"}},{"base_weights":[-2.257987E-3,-2.7676148E0,1.8351266E0,-3.7497375E0,-1.188066E0,8.976839E-1,3.9047506E0,-4.370241E0,-3.184902E0,-1.9010526E0,-8.7111825E-1,2.971014E-1,1.7710351E0,3.005831E0,5.0664406E0,-4.9711E0,-4.1094403E0,-3.4775817E0,-2.8315547E0,-2.199225E0,-1.6053945E0,-1.1068324E0,-6.5265936E-1,5.5410513E-3,7.12487E-1,1.358429E0,2.0686302E0,2.7583194E0,3.5012536E0,4.634297E0,5.5353026E0,-2.759863E-1,-2.4073239E-1,-2.1422398E-1,-1.9590221E-1,-1.8094772E-1,-1.6505165E-1,-1.487528E-1,-1.3335457E-1,-1.1824061E-1,-1.0171093E-1,-8.926663E-2,-7.583495E-2,-6.327048E-2,-5.0399106E-2,-3.9070077E-2,-2.7785039E-2,-1.0557107E-2,7.7882954E-3,2.597331E-2,4.2706218E-2,5.87658E-2,7.7078186E-2,9.38396E-2,1.10900834E-1,1.275872E-1,1.460894E-1,1.65712E-1,1.9414698E-1,2.1502486E-1,2.4133888E-1,2.6592663E-1,2.9278612E-1],"categories":[],"categories_nodes":[],"categories_segments":[],"categories_sizes":[],"default_left":[0,0,0,0,0,0,0,0,0,0,0,0,0,0,0,0,0,0,0,0,0,0,0,0,0,0,0,0,0,0,0,0,0,0,0,0,0,0,0,0,0,0,0,0,0,0,0,0,0,0,0,0,0,0,0,0,0,0,0,0,0,0,0],"id":16,"left_children":[1,3,5,7,9,11,13,15,17,19,21,23,25,27,29,31,33,35,37,39,41,43,45,47,49,51,53,55,57,59,61,-1,-1,-1,-1,-1,-1,-1,-1,-1,-1,-1,-1,-1,-1,-1,-1,-1,-1,-1,-1,-1,-1,-1,-1,-1,-1,-1,-1,-1,-1,-1,-1],"loss_changes":[7.0310706E5,8.568994E4,1.6129894E5,1.1923875E4,4.784588E3,3.0013523E4,2.7050062E4,2.5225938E3,1.8344844E3,5.709883E2,7.543838E2,4.106472E3,2.8601562E3,1.7823438E3,2.2649062E3,3.9460938E2,3.6253125E2,2.3142188E2,1.828789E2,8.3771484E1,4.9575195E1,1.092666E2,9.459619E1,6.4858295E2,3.8186328E2,3.2591797E2,3.8398047E2,3.2178906E2,3.3439453E2,3.5760938E2,3.4510938E2,0E0,0E0,0E0,0E0,0E0,0E0,0E0,0E0,0E0,0E0,0E0,0E0,0E0,0E0,0E0,0E0,0E0,0E0,0E0,0E0,0E0,0E0,0E0,0E0,0E0,0E0,0E0,0E0,0E0,0E0,0E0,0E0],"parents":[2147483647,0,0,1,1,2,2,3,3,4,4,5,5,6,6,7,7,8,8,9,9,10,10,11,11,12,12,13,13,14,14,15,15,16,16,17,17,18,18,19,19,20,20,21,21,22,22,23,23,24,24,25,25,26,26,27,27,28,28,29,29,30,30],"right_children":[2,4,6,8,10,12,14,16,18,20,22,24,26,28,30,32,34,36,38,40,42,44,46,48,50,52,54,56,58,60,62,-1,-1,-1,-1,-1,-1,-1,-1,-1,-1,-1,-1,-1,-1,-1,-1,-1,-1,-1,-1,-1,-1,-1,-1,-1,-1,-1,-1,-1,-1,-1,-1],"split_conditions":[3.7014E1,3.215945E1,4.3319336E1,2.9299995E1,3.4705135E1,4.0195744E1,4.710146E1,2.766875E1,3.0733805E1,3.3560623E1,3.5844543E1,3.869028E1,4.1765E1,4.4940506E1,4.9452934E1,2.6087484E1,2.8557686E1,2.998162E1,3.1459E1,3.2877995E1,3.4056686E1,3.528586E1,3.63525E1,3.7788E1,3.940275E1,4.0988346E1,4.249083E1,4.40975E1,4.5947556E1,4.818184E1,5.060375E1,-2.759863E-1,-2.4073239E-1,-2.1422398E-1,-1.9590221E-1,-1.8094772E-1,-1.6505165E-1,-1.487528E-1,-1.3335457E-1,-1.1824061E-1,-1.0171093E-1,-8.926663E-2,-7.583495E-2,-6.327048E-2,-5.0399106E-2,-3.9070077E-2,-2.7785039E-2,-1.0557107E-2,7.7882954E-3,2.597331E-2,4.2706218E-2,5.87658E-2,7.7078186E-2,9.38396E-2,1.10900834E-1,1.275872E-1,1.460894E-1,1.65712E-1,1.9414698E-1,2.1502486E-1,2.4133888E-1,2.6592663E-1,2.9278612E-1],"split_indices":[4,4,4,4,4,4,4,4,4,4,4,4,4,4,4,6,4,4,4,4,4,4,4,4,4,4,4,4,6,4,4,0,0,0,0,0,0,0,0,0,0,0,0,0,0,0,0,0,0,0,0,0,0,0,0,0,0,0,0,0,0,0,0],"split_type":[0,0,0,0,0,0,0,0,0,0,0,0,0,0,0,0,0,0,0,0,0,0,0,0,0,0,0,0,0,0,0,0,0,0,0,0,0,0,0,0,0,0,0,0,0,0,0,0,0,0,0,0,0,0,0,0,0,0,0,0,0,0,0],"sum_hessian":[1.38377E5,5.5239E4,8.3138E4,3.406E4,2.1179E4,5.7221E4,2.5917E4,1.6227E4,1.7833E4,6.516E3,1.4663E4,3.3906E4,2.3315E4,1.4613E4,1.1304E4,4.906E3,1.1321E4,9.749E3,8.084E3,3.241E3,3.275E3,7.051E3,7.612E3,1.9923E4,1.3983E4,9.772E3,1.3543E4,9.749E3,4.864E3,5.888E3,5.416E3,1.081E3,3.825E3,5.902E3,5.419E3,5.403E3,4.346E3,4.308E3,3.776E3,1.611E3,1.63E3,1.075E3,2.2E3,2.703E3,4.348E3,3.267E3,4.345E3,8.157E3,1.1766E4,5.92E3,8.063E3,4.89E3,4.882E3,5.935E3,7.608E3,4.314E3,5.435E3,3.271E3,1.593E3,2.162E3,3.726E3,3.241E3,2.175E3],"tree_param":{"num_deleted":"0","num_feature":"18","num_nodes":"63","size_leaf_vector":"1"}},{"base_weights":[5.0179567E-3,-2.5872543E0,1.7762687E0,-3.541989E0,-1.0644298E0,9.347192E-1,3.8395405E0,-4.235525E0,-3.068539E0,-1.6519785E0,-7.4913704E-1,3.6393556E-1,1.8226417E0,2.989147E0,4.8618765E0,-4.8976116E0,-4.0356874E0,-3.4123096E0,-2.72363E0,-1.9894539E0,-1.4027979E0,-9.478142E-1,-5.5072E-1,7.051599E-2,7.867645E-1,1.492074E0,2.0938497E0,2.7593513E0,3.540596E0,4.5612E0,5.4128E0,-2.7449223E-1,-2.3880596E-1,-2.1200533E-1,-1.9346909E-1,-1.7662968E-1,-1.6221441E-1,-1.4624843E-1,-1.2719975E-1,-1.07127525E-1,-9.163024E-2,-7.627559E-2,-6.402546E-2,-5.2198786E-2,-4.1722037E-2,-3.2758843E-2,-2.436509E-2,-3.90768E-3,1.4069724E-2,3.173765E-2,4.74415E-2,6.661173E-2,8.323327E-2,9.826331E-2,1.1308652E-1,1.3218306E-1,1.4860775E-1,1.6374588E-1,1.8682109E-1,2.1632032E-1,2.4150465E-1,2.6360044E-1,2.875105E-1],"categories":[],"categories_nodes":[],"categories_segments":[],"categories_sizes":[],"default_left":[0,0,0,0,0,0,0,0,0,0,0,0,0,0,0,0,0,0,0,0,0,0,0,0,0,0,0,0,0,0,0,0,0,0,0,0,0,0,0,0,0,0,0,0,0,0,0,0,0,0,0,0,0,0,0,0,0,0,0,0,0,0,0],"id":17,"left_children":[1,3,5,7,9,11,13,15,17,19,21,23,25,27,29,31,33,35,37,39,41,43,45,47,49,51,53,55,57,59,61,-1,-1,-1,-1,-1,-1,-1,-1,-1,-1,-1,-1,-1,-1,-1,-1,-1,-1,-1,-1,-1,-1,-1,-1,-1,-1,-1,-1,-1,-1,-1,-1],"loss_changes":[6.351373E5,8.163231E4,1.4268406E5,1.1319219E4,4.0073828E3,2.9582438E4,2.0683E4,1.8324219E3,2.4230469E3,6.326094E2,5.546826E2,4.4082686E3,2.0445469E3,1.6374688E3,1.7658281E3,2.0697656E2,3.49375E2,1.9610156E2,3.6309375E2,7.308301E1,6.3325195E1,7.5836426E1,4.637671E1,6.576765E2,3.579961E2,2.818457E2,2.6633984E2,2.1814844E2,1.865039E2,4.2098438E2,1.5072656E2,0E0,0E0,0E0,0E0,0E0,0E0,0E0,0E0,0E0,0E0,0E0,0E0,0E0,0E0,0E0,0E0,0E0,0E0,0E0,0E0,0E0,0E0,0E0,0E0,0E0,0E0,0E0,0E0,0E0,0E0,0E0,0E0],"parents":[2147483647,0,0,1,1,2,2,3,3,4,4,5,5,6,6,7,7,8,8,9,9,10,10,11,11,12,12,13,13,14,14,15,15,16,16,17,17,18,18,19,19,20,20,21,21,22,22,23,23,24,24,25,25,26,26,27,27,28,28,29,29,30,30],"right_children":[2,4,6,8,10,12,14,16,18,20,22,24,26,28,30,32,34,36,38,40,42,44,46,48,50,52,54,56,58,60,62,-1,-1,-1,-1,-1,-1,-1,-1,-1,-1,-1,-1,-1,-1,-1,-1,-1,-1,-1,-1,-1,-1,-1,-1,-1,-1,-1,-1,-1,-1,-1,-1],"split_conditions":[3.71597E1,3.2328957E1,4.3678963E1,2.9020239E1,3.5085762E1,4.0574062E1,4.7611248E1,2.6971632E1,3.0452871E1,3.379E1,3.6090675E1,3.900797E1,4.218E1,4.526E1,4.992E1,2.555E1,2.8213722E1,2.978629E1,3.133E1,3.317E1,3.460017E1,3.565785E1,3.653336E1,3.813105E1,3.977E1,4.15E1,4.2956383E1,4.466699E1,4.6128994E1,4.8917484E1,5.106534E1,-2.7449223E-1,-2.3880596E-1,-2.1200533E-1,-1.9346909E-1,-1.7662968E-1,-1.6221441E-1,-1.4624843E-1,-1.2719975E-1,-1.07127525E-1,-9.163024E-2,-7.627559E-2,-6.402546E-2,-5.2198786E-2,-4.1722037E-2,-3.2758843E-2,-2.436509E-2,-3.90768E-3,1.4069724E-2,3.173765E-2,4.74415E-2,6.661173E-2,8.323327E-2,9.826331E-2,1.1308652E-1,1.3218306E-1,1.4860775E-1,1.6374588E-1,1.8682109E-1,2.1632032E-1,2.4150465E-1,2.6360044E-1,2.875105E-1],"split_indices":[2,2,2,2,2,2,5,2,2,2,2,2,2,2,2,2,2,2,2,2,2,2,2,2,2,2,2,2,2,2,2,0,0,0,0,0,0,0,0,0,0,0,0,0,0,0,0,0,0,0,0,0,0,0,0,0,0,0,0,0,0,0,0],"split_type":[0,0,0,0,0,0,0,0,0,0,0,0,0,0,0,0,0,0,0,0,0,0,0,0,0,0,0,0,0,0,0,0,0,0,0,0,0,0,0,0,0,0,0,0,0,0,0,0,0,0,0,0,0,0,0,0,0,0,0,0,0,0,0],"sum_hessian":[1.38325E5,5.6149E4,8.2176E4,3.4511E4,2.1638E4,5.837E4,2.3806E4,1.3998E4,2.0513E4,7.555E3,1.4083E4,3.5531E4,2.2839E4,1.2998E4,1.0808E4,3.24E3,1.0758E4,1.0269E4,1.0244E4,3.206E3,4.349E3,7.035E3,7.048E3,2.0976E4,1.4555E4,1.0296E4,1.2543E4,9.179E3,3.819E3,6.998E3,3.81E3,5.44E2,2.696E3,4.815E3,5.943E3,5.973E3,4.296E3,4.823E3,5.421E3,1.616E3,1.59E3,2.165E3,2.184E3,3.802E3,3.233E3,2.659E3,4.389E3,1.2303E4,8.673E3,7.513E3,7.042E3,5.35E3,4.946E3,7.11E3,5.433E3,5.955E3,3.224E3,1.628E3,2.191E3,3.745E3,3.253E3,2.7E3,1.11E3],"tree_param":{"num_deleted":"0","num_feature":"18","num_nodes":"63","size_leaf_vector":"1"}},{"base_weights":[3.0633898E-3,-2.4570763E0,1.6881611E0,-3.4024627E0,-1.0662124E0,8.852245E-1,3.6473205E0,-4.0452037E0,-2.9658875E0,-1.7578745E0,-7.617121E-1,3.473876E-1,1.7280267E0,2.835139E0,4.6154532E0,-4.6555433E0,-3.8525712E0,-3.2687752E0,-2.651366E0,-2.0583644E0,-1.4987271E0,-1.001993E0,-5.653376E-1,6.684381E-2,7.479217E-1,1.4303803E0,2.0022213E0,2.6206806E0,3.3597E0,4.3311934E0,5.143229E0,-2.6085222E-1,-2.2695687E-1,-2.0514588E-1,-1.8688552E-1,-1.7038117E-1,-1.57193E-1,-1.4188404E-1,-1.250383E-1,-1.0954344E-1,-9.6352E-2,-8.298861E-2,-6.874203E-2,-5.7474595E-2,-4.5430098E-2,-3.420492E-2,-2.3678137E-2,-3.3493682E-3,1.3981106E-2,3.0714232E-2,4.5768622E-2,6.335793E-2,7.97332E-2,9.4008036E-2,1.0742992E-1,1.2209051E-1,1.3736664E-1,1.5552047E-1,1.7733936E-1,2.0359893E-1,2.277216E-1,2.5040016E-1,2.7344963E-1],"categories":[],"categories_nodes":[],"categories_segments":[],"categories_sizes":[],"default_left":[0,0,0,0,0,0,0,0,0,0,0,0,0,0,0,0,0,0,0,0,0,0,0,0,0,0,0,0,0,0,0,0,0,0,0,0,0,0,0,0,0,0,0,0,0,0,0,0,0,0,0,0,0,0,0,0,0,0,0,0,0,0,0],"id":18,"left_children":[1,3,5,7,9,11,13,15,17,19,21,23,25,27,29,31,33,35,37,39,41,43,45,47,49,51,53,55,57,59,61,-1,-1,-1,-1,-1,-1,-1,-1,-1,-1,-1,-1,-1,-1,-1,-1,-1,-1,-1,-1,-1,-1,-1,-1,-1,-1,-1,-1,-1,-1,-1,-1],"loss_changes":[5.732627E5,7.3912375E4,1.2909794E5,9.37875E3,4.7898555E3,2.6386777E4,1.8745656E4,1.5732656E3,1.8902344E3,5.383535E2,7.448154E2,3.993149E3,1.847875E3,1.4509453E3,1.6103281E3,1.8822656E2,2.8064062E2,1.6533594E2,2.674297E2,5.1757812E1,7.227637E1,9.680029E1,9.444507E1,5.951748E2,3.2700098E2,2.8964258E2,2.0680469E2,2.0205469E2,1.6442188E2,3.9109375E2,1.4017969E2,0E0,0E0,0E0,0E0,0E0,0E0,0E0,0E0,0E0,0E0,0E0,0E0,0E0,0E0,0E0,0E0,0E0,0E0,0E0,0E0,0E0,0E0,0E0,0E0,0E0,0E0,0E0,0E0,0E0,0E0,0E0,0E0],"parents":[2147483647,0,0,1,1,2,2,3,3,4,4,5,5,6,6,7,7,8,8,9,9,10,10,11,11,12,12,13,13,14,14,15,15,16,16,17,17,18,18,19,19,20,20,21,21,22,22,23,23,24,24,25,25,26,26,27,27,28,28,29,29,30,30],"right_children":[2,4,6,8,10,12,14,16,18,20,22,24,26,28,30,32,34,36,38,40,42,44,46,48,50,52,54,56,58,60,62,-1,-1,-1,-1,-1,-1,-1,-1,-1,-1,-1,-1,-1,-1,-1,-1,-1,-1,-1,-1,-1,-1,-1,-1,-1,-1,-1,-1,-1,-1,-1,-1],"split_conditions":[3.71597E1,3.2039974E1,4.3678963E1,2.8943432E1,3.4701595E1,4.0574062E1,4.742718E1,2.6971632E1,3.0354652E1,3.3402405E1,3.584876E1,3.900797E1,4.2226707E1,4.526E1,4.992E1,2.555E1,2.8E1,2.9618643E1,3.1156963E1,3.264091E1,3.4060833E1,3.5282413E1,3.644E1,3.819149E1,3.982E1,4.15E1,4.2956383E1,4.435483E1,4.6128994E1,4.872559E1,5.106534E1,-2.6085222E-1,-2.2695687E-1,-2.0514588E-1,-1.8688552E-1,-1.7038117E-1,-1.57193E-1,-1.4188404E-1,-1.250383E-1,-1.0954344E-1,-9.6352E-2,-8.298861E-2,-6.874203E-2,-5.7474595E-2,-4.5430098E-2,-3.420492E-2,-2.3678137E-2,-3.3493682E-3,1.3981106E-2,3.0714232E-2,4.5768622E-2,6.335793E-2,7.97332E-2,9.4008036E-2,1.0742992E-1,1.2209051E-1,1.3736664E-1,1.5552047E-1,1.7733936E-1,2.0359893E-1,2.277216E-1,2.5040016E-1,2.7344963E-1],"split_indices":[2,2,2,2,2,2,2,2,2,2,2,2,2,2,2,2,2,2,2,2,2,2,2,2,2,2,2,2,2,2,2,0,0,0,0,0,0,0,0,0,0,0,0,0,0,0,0,0,0,0,0,0,0,0,0,0,0,0,0,0,0,0,0],"split_type":[0,0,0,0,0,0,0,0,0,0,0,0,0,0,0,0,0,0,0,0,0,0,0,0,0,0,0,0,0,0,0,0,0,0,0,0,0,0,0,0,0,0,0,0,0,0,0,0,0,0,0,0,0,0,0,0,0,0,0,0,0,0,0],"sum_hessian":[1.38281E5,5.6213E4,8.2068E4,3.3465E4,2.2748E4,5.8212E4,2.3856E4,1.3533E4,1.9932E4,6.952E3,1.5796E4,3.5536E4,2.2676E4,1.2975E4,1.0881E4,3.241E3,1.0292E4,1.0149E4,9.783E3,3.216E3,3.736E3,7.102E3,8.694E3,2.0899E4,1.4637E4,1.0876E4,1.18E4,9.214E3,3.761E3,7.078E3,3.803E3,5.49E2,2.692E3,3.226E3,7.066E3,4.794E3,5.355E3,4.365E3,5.418E3,1.593E3,1.623E3,1.619E3,2.117E3,2.749E3,4.353E3,3.787E3,4.907E3,1.283E4,8.069E3,8.143E3,6.494E3,5.46E3,5.416E3,6.442E3,5.358E3,3.828E3,5.386E3,1.62E3,2.141E3,3.284E3,3.794E3,2.699E3,1.104E3],"tree_param":{"num_deleted":"0","num_feature":"18","num_nodes":"63","size_leaf_vector":"1"}},{"base_weights":[1.1023057E-3,-2.354064E0,1.5878048E0,-3.2305589E0,-1.0303608E0,7.56282E-1,3.301E0,-3.842368E0,-2.818469E0,-1.6700563E0,-7.3594964E-1,2.4644722E-1,1.4655685E0,2.512197E0,4.302429E0,-4.4207187E0,-3.6583135E0,-3.1053174E0,-2.5187657E0,-1.9560091E0,-1.4237596E0,-9.5193714E-1,-5.481525E-1,-2.6862655E-2,5.383241E-1,1.121612E0,1.7374172E0,2.2962966E0,2.8991547E0,3.8858588E0,4.715208E0,-2.4764054E-1,-2.1550874E-1,-1.9351879E-1,-1.7681396E-1,-1.6113457E-1,-1.4871302E-1,-1.3478403E-1,-1.18772164E-1,-1.02192365E-1,-8.889706E-2,-7.879998E-2,-6.542093E-2,-5.4612964E-2,-4.3168027E-2,-3.335523E-2,-2.3460878E-2,-1.05193425E-2,3.624194E-3,1.7923119E-2,3.4239784E-2,4.762716E-2,6.36852E-2,7.898321E-2,9.347253E-2,1.0689832E-1,1.22789584E-1,1.382535E-1,1.6035889E-1,1.7785335E-1,2.0370464E-1,2.2210975E-1,2.4680841E-1],"categories":[],"categories_nodes":[],"categories_segments":[],"categories_sizes":[],"default_left":[0,0,0,0,0,0,0,0,0,0,0,0,0,0,0,0,0,0,0,0,0,0,0,0,0,0,0,0,0,0,0,0,0,0,0,0,0,0,0,0,0,0,0,0,0,0,0,0,0,0,0,0,0,0,0,0,0,0,0,0,0,0,0],"id":19,"left_children":[1,3,5,7,9,11,13,15,17,19,21,23,25,27,29,31,33,35,37,39,41,43,45,47,49,51,53,55,57,59,61,-1,-1,-1,-1,-1,-1,-1,-1,-1,-1,-1,-1,-1,-1,-1,-1,-1,-1,-1,-1,-1,-1,-1,-1,-1,-1,-1,-1,-1,-1,-1,-1],"loss_changes":[5.1671528E5,6.4572125E4,1.176862E5,8.4314375E3,4.174879E3,2.0112885E4,2.1313344E4,1.4181094E3,1.7125938E3,4.8937305E2,6.1549023E2,2.581543E3,2.172957E3,1.2551172E3,2.0267031E3,1.6969531E2,2.5098438E2,1.4764844E2,2.418789E2,4.6902344E1,6.3926758E1,8.683301E1,7.5985596E1,3.0473486E2,4.1202197E2,2.6289453E2,2.6761328E2,2.3967969E2,2.1436328E2,3.5221094E2,3.3815625E2,0E0,0E0,0E0,0E0,0E0,0E0,0E0,0E0,0E0,0E0,0E0,0E0,0E0,0E0,0E0,0E0,0E0,0E0,0E0,0E0,0E0,0E0,0E0,0E0,0E0,0E0,0E0,0E0,0E0,0E0,0E0,0E0],"parents":[2147483647,0,0,1,1,2,2,3,3,4,4,5,5,6,6,7,7,8,8,9,9,10,10,11,11,12,12,13,13,14,14,15,15,16,16,17,17,18,18,19,19,20,20,21,21,22,22,23,23,24,24,25,25,26,26,27,27,28,28,29,29,30,30],"right_children":[2,4,6,8,10,12,14,16,18,20,22,24,26,28,30,32,34,36,38,40,42,44,46,48,50,52,54,56,58,60,62,-1,-1,-1,-1,-1,-1,-1,-1,-1,-1,-1,-1,-1,-1,-1,-1,-1,-1,-1,-1,-1,-1,-1,-1,-1,-1,-1,-1,-1,-1,-1,-1],"split_conditions":[3.708675E1,3.2039974E1,4.318993E1,2.8943432E1,3.4701595E1,4.009263E1,4.6881256E1,2.6971632E1,3.0354652E1,3.3402405E1,3.584876E1,3.844461E1,4.1671173E1,4.4763412E1,4.9256252E1,2.5817028E1,2.808E1,2.9674438E1,3.1156963E1,3.2883102E1,3.4060833E1,3.5282413E1,3.6350285E1,3.765E1,3.9236057E1,4.0778595E1,4.24E1,4.3996094E1,4.57E1,4.799273E1,5.009007E1,-2.4764054E-1,-2.1550874E-1,-1.9351879E-1,-1.7681396E-1,-1.6113457E-1,-1.4871302E-1,-1.3478403E-1,-1.18772164E-1,-1.02192365E-1,-8.889706E-2,-7.879998E-2,-6.542093E-2,-5.4612964E-2,-4.3168027E-2,-3.335523E-2,-2.3460878E-2,-1.05193425E-2,3.624194E-3,1.7923119E-2,3.4239784E-2,4.762716E-2,6.36852E-2,7.898321E-2,9.347253E-2,1.0689832E-1,1.22789584E-1,1.382535E-1,1.6035889E-1,1.7785335E-1,2.0370464E-1,2.2210975E-1,2.4680841E-1],"split_indices":[2,2,2,2,2,2,2,2,2,2,2,2,2,2,2,5,2,2,2,2,2,2,2,2,2,2,2,2,2,2,2,0,0,0,0,0,0,0,0,0,0,0,0,0,0,0,0,0,0,0,0,0,0,0,0,0,0,0,0,0,0,0,0],"split_type":[0,0,0,0,0,0,0,0,0,0,0,0,0,0,0,0,0,0,0,0,0,0,0,0,0,0,0,0,0,0,0,0,0,0,0,0,0,0,0,0,0,0,0,0,0,0,0,0,0,0,0,0,0,0,0,0,0,0,0,0,0,0,0],"sum_hessian":[1.3827E5,5.5657E4,8.2613E4,3.3484E4,2.2173E4,5.5619E4,2.6994E4,1.3473E4,2.0011E4,6.987E3,1.5186E4,3.236E4,2.3259E4,1.5102E4,1.1892E4,3.247E3,1.0226E4,1.022E4,9.791E3,3.23E3,3.757E3,7.061E3,8.125E3,1.6712E4,1.5648E4,1.027E4,1.2989E4,9.698E3,5.404E3,5.924E3,5.968E3,5.51E2,2.696E3,3.724E3,6.502E3,5.379E3,4.841E3,4.374E3,5.417E3,2.156E3,1.074E3,1.614E3,2.143E3,2.728E3,4.333E3,3.238E3,4.887E3,5.869E3,1.0843E4,7.025E3,8.623E3,4.867E3,5.403E3,5.924E3,7.065E3,4.874E3,4.824E3,3.772E3,1.632E3,2.164E3,3.76E3,2.679E3,3.289E3],"tree_param":{"num_deleted":"0","num_feature":"18","num_nodes":"63","size_leaf_vector":"1"}},{"base_weights":[-2.5148294E-3,-2.2067049E0,1.5306354E0,-3.072017E0,-9.5490533E-1,8.0909276E-1,3.290719E0,-3.652825E0,-2.6784906E0,-1.5875192E0,-6.781658E-1,3.2110754E-1,1.5610485E0,2.5621555E0,4.166853E0,-4.205442E0,-3.4769425E0,-2.936112E0,-2.3760254E0,-1.8604718E0,-1.3510934E0,-9.050578E-1,-5.026684E-1,6.9693945E-2,6.7483187E-1,1.2911267E0,1.808134E0,2.3889346E0,3.0899458E0,3.8491788E0,4.5524435E0,-2.3560075E-1,-2.0490587E-1,-1.8390469E-1,-1.6789258E-1,-1.5204012E-1,-1.3902877E-1,-1.2636326E-1,-1.1207237E-1,-9.896769E-2,-8.694204E-2,-7.475381E-2,-6.2099088E-2,-5.184887E-2,-4.107025E-2,-3.0264307E-2,-2.055831E-2,-2.8364824E-3,1.2150924E-2,2.8109137E-2,4.197738E-2,5.6374706E-2,7.1284406E-2,8.369013E-2,9.59662E-2,1.1400528E-1,1.3014592E-1,1.4586855E-1,1.628178E-1,1.7936449E-1,1.9992314E-1,2.200632E-1,2.4267884E-1],"categories":[],"categories_nodes":[],"categories_segments":[],"categories_sizes":[],"default_left":[0,0,0,0,0,0,0,0,0,0,0,0,0,0,0,0,0,0,0,0,0,0,0,0,0,0,0,0,0,0,0,0,0,0,0,0,0,0,0,0,0,0,0,0,0,0,0,0,0,0,0,0,0,0,0,0,0,0,0,0,0,0,0],"id":20,"left_children":[1,3,5,7,9,11,13,15,17,19,21,23,25,27,29,31,33,35,37,39,41,43,45,47,49,51,53,55,57,59,61,-1,-1,-1,-1,-1,-1,-1,-1,-1,-1,-1,-1,-1,-1,-1,-1,-1,-1,-1,-1,-1,-1,-1,-1,-1,-1,-1,-1,-1,-1,-1,-1],"loss_changes":[4.6798988E5,6.15335E4,1.0372258E5,7.6676562E3,4.064205E3,2.125616E4,1.51475E4,1.3037344E3,1.5535625E3,4.5347656E2,6.4286035E2,3.1242803E3,1.5181445E3,1.1782031E3,1.3029531E3,1.5846875E2,2.3427344E2,1.6757031E2,1.819336E2,4.394336E1,5.768506E1,7.689307E1,8.53103E1,4.500269E2,2.703584E2,2.3837305E2,1.7453125E2,2.2153906E2,8.2427734E1,2.1699219E2,2.0007031E2,0E0,0E0,0E0,0E0,0E0,0E0,0E0,0E0,0E0,0E0,0E0,0E0,0E0,0E0,0E0,0E0,0E0,0E0,0E0,0E0,0E0,0E0,0E0,0E0,0E0,0E0,0E0,0E0,0E0,0E0,0E0,0E0],"parents":[2147483647,0,0,1,1,2,2,3,3,4,4,5,5,6,6,7,7,8,8,9,9,10,10,11,11,12,12,13,13,14,14,15,15,16,16,17,17,18,18,19,19,20,20,21,21,22,22,23,23,24,24,25,25,26,26,27,27,28,28,29,29,30,30],"right_children":[2,4,6,8,10,12,14,16,18,20,22,24,26,28,30,32,34,36,38,40,42,44,46,48,50,52,54,56,58,60,62,-1,-1,-1,-1,-1,-1,-1,-1,-1,-1,-1,-1,-1,-1,-1,-1,-1,-1,-1,-1,-1,-1,-1,-1,-1,-1,-1,-1,-1,-1,-1,-1],"split_conditions":[3.721E1,3.2039974E1,4.3678963E1,2.8943432E1,3.4701595E1,4.0574062E1,4.743499E1,2.6971632E1,3.0452871E1,3.3402405E1,3.584876E1,3.900797E1,4.2226707E1,4.544E1,4.960902E1,2.555E1,2.808E1,2.978629E1,3.124371E1,3.264091E1,3.4060833E1,3.5282413E1,3.653336E1,3.813105E1,3.986714E1,4.14222E1,4.2865093E1,4.4763412E1,4.66E1,4.8382484E1,5.0784496E1,-2.3560075E-1,-2.0490587E-1,-1.8390469E-1,-1.6789258E-1,-1.5204012E-1,-1.3902877E-1,-1.2636326E-1,-1.1207237E-1,-9.896769E-2,-8.694204E-2,-7.475381E-2,-6.2099088E-2,-5.184887E-2,-4.107025E-2,-3.0264307E-2,-2.055831E-2,-2.8364824E-3,1.2150924E-2,2.8109137E-2,4.197738E-2,5.6374706E-2,7.1284406E-2,8.369013E-2,9.59662E-2,1.1400528E-1,1.3014592E-1,1.4586855E-1,1.628178E-1,1.7936449E-1,1.9992314E-1,2.200632E-1,2.4267884E-1],"split_indices":[2,2,2,2,2,2,4,2,2,2,2,2,2,2,2,2,2,2,2,2,2,2,2,2,2,2,2,2,2,2,2,0,0,0,0,0,0,0,0,0,0,0,0,0,0,0,0,0,0,0,0,0,0,0,0,0,0,0,0,0,0,0,0],"split_type":[0,0,0,0,0,0,0,0,0,0,0,0,0,0,0,0,0,0,0,0,0,0,0,0,0,0,0,0,0,0,0,0,0,0,0,0,0,0,0,0,0,0,0,0,0,0,0,0,0,0,0,0,0,0,0,0,0,0,0,0,0,0,0],"sum_hessian":[1.38483E5,5.6809E4,8.1674E4,3.3589E4,2.322E4,5.7928E4,2.3746E4,1.3563E4,2.0026E4,7.065E3,1.6155E4,3.5131E4,2.2797E4,1.2967E4,1.0779E4,3.269E3,1.0294E4,1.081E4,9.216E3,3.276E3,3.789E3,7.044E3,9.111E3,2.0536E4,1.4595E4,1.0898E4,1.1899E4,9.767E3,3.2E3,5.916E3,4.863E3,5.64E2,2.705E3,3.817E3,6.477E3,6.45E3,4.36E3,4.331E3,4.885E3,1.649E3,1.627E3,1.628E3,2.161E3,2.729E3,4.315E3,4.292E3,4.819E3,1.1875E4,8.661E3,8.67E3,5.925E3,4.922E3,5.976E3,5.396E3,6.503E3,6.482E3,3.285E3,1.58E3,1.62E3,2.157E3,3.759E3,3.248E3,1.615E3],"tree_param":{"num_deleted":"0","num_feature":"18","num_nodes":"63","size_leaf_vector":"1"}},{"base_weights":[-6.579862E-4,-2.094277E0,1.454841E0,-2.886134E0,-8.5448194E-1,7.4387974E-1,3.0773957E0,-3.3401325E0,-2.4013844E0,-1.3471903E0,-5.99339E-1,2.774315E-1,1.4194468E0,2.3956752E0,3.9568565E0,-3.819279E0,-3.1315794E0,-2.6088345E0,-2.1168299E0,-1.620616E0,-1.1428077E0,-7.58709E-1,-4.2843354E-1,2.6092038E-2,5.629386E-1,1.0951273E0,1.63162E0,2.1792147E0,2.802093E0,3.713665E0,4.4114676E0,-2.0954792E-1,-1.8292004E-1,-1.6518795E-1,-1.4980845E-1,-1.3606763E-1,-1.2333446E-1,-1.0994699E-1,-9.652486E-2,-8.999107E-2,-7.6558806E-2,-6.359439E-2,-5.326691E-2,-4.2545818E-2,-3.3380806E-2,-2.5118176E-2,-1.9069223E-2,-5.7193013E-3,6.5881237E-3,2.001833E-2,3.4695264E-2,4.6739753E-2,6.0490727E-2,7.416072E-2,8.798354E-2,1.01817034E-1,1.153506E-1,1.3038744E-1,1.5227643E-1,1.7443858E-1,1.9535564E-1,2.1451211E-1,2.3519254E-1],"categories":[],"categories_nodes":[],"categories_segments":[],"categories_sizes":[],"default_left":[0,0,0,0,0,0,0,0,0,0,0,0,0,0,0,0,0,0,0,0,0,0,0,0,0,0,0,0,0,0,0,0,0,0,0,0,0,0,0,0,0,0,0,0,0,0,0,0,0,0,0,0,0,0,0,0,0,0,0,0,0,0,0],"id":21,"left_children":[1,3,5,7,9,11,13,15,17,19,21,23,25,27,29,31,33,35,37,39,41,43,45,47,49,51,53,55,57,59,61,-1,-1,-1,-1,-1,-1,-1,-1,-1,-1,-1,-1,-1,-1,-1,-1,-1,-1,-1,-1,-1,-1,-1,-1,-1,-1,-1,-1,-1,-1,-1,-1],"loss_changes":[4.2045488E5,5.5549312E4,9.3890516E4,7.5911875E3,2.771875E3,1.7833975E4,1.48580625E4,1.7695469E3,9.8047656E2,4.1861328E2,3.9551367E2,2.4025552E3,1.5888711E3,1.2230547E3,1.180625E3,3.076797E2,2.7983594E2,1.4771875E2,1.0358984E2,4.8791016E1,4.1733887E1,6.2586914E1,2.4208862E1,2.6434894E2,3.334668E2,1.6702734E2,2.6290234E2,1.6184375E2,2.2160547E2,2.9351562E2,1.1336719E2,0E0,0E0,0E0,0E0,0E0,0E0,0E0,0E0,0E0,0E0,0E0,0E0,0E0,0E0,0E0,0E0,0E0,0E0,0E0,0E0,0E0,0E0,0E0,0E0,0E0,0E0,0E0,0E0,0E0,0E0,0E0,0E0],"parents":[2147483647,0,0,1,1,2,2,3,3,4,4,5,5,6,6,7,7,8,8,9,9,10,10,11,11,12,12,13,13,14,14,15,15,16,16,17,17,18,18,19,19,20,20,21,21,22,22,23,23,24,24,25,25,26,26,27,27,28,28,29,29,30,30],"right_children":[2,4,6,8,10,12,14,16,18,20,22,24,26,28,30,32,34,36,38,40,42,44,46,48,50,52,54,56,58,60,62,-1,-1,-1,-1,-1,-1,-1,-1,-1,-1,-1,-1,-1,-1,-1,-1,-1,-1,-1,-1,-1,-1,-1,-1,-1,-1,-1,-1,-1,-1,-1,-1],"split_conditions":[3.721E1,3.2328957E1,4.3502693E1,2.9550653E1,3.5085762E1,4.0314247E1,4.743499E1,2.7786E1,3.106248E1,3.379E1,3.6163593E1,3.8617012E1,4.186799E1,4.506955E1,4.992E1,2.6462807E1,2.856E1,3.0278608E1,3.1803497E1,3.2883102E1,3.447E1,3.565785E1,3.6608856E1,3.7842033E1,3.945922E1,4.1E1,4.2618187E1,4.4288277E1,4.5947556E1,4.872559E1,5.106534E1,-2.0954792E-1,-1.8292004E-1,-1.6518795E-1,-1.4980845E-1,-1.3606763E-1,-1.2333446E-1,-1.0994699E-1,-9.652486E-2,-8.999107E-2,-7.6558806E-2,-6.359439E-2,-5.326691E-2,-4.2545818E-2,-3.3380806E-2,-2.5118176E-2,-1.9069223E-2,-5.7193013E-3,6.5881237E-3,2.001833E-2,3.4695264E-2,4.6739753E-2,6.0490727E-2,7.416072E-2,8.798354E-2,1.01817034E-1,1.153506E-1,1.3038744E-1,1.5227643E-1,1.7443858E-1,1.9535564E-1,2.1451211E-1,2.3519254E-1],"split_indices":[2,2,2,2,2,2,4,2,2,2,2,2,2,2,2,2,2,2,2,2,2,2,2,2,2,2,2,2,6,2,2,0,0,0,0,0,0,0,0,0,0,0,0,0,0,0,0,0,0,0,0,0,0,0,0,0,0,0,0,0,0,0,0],"split_type":[0,0,0,0,0,0,0,0,0,0,0,0,0,0,0,0,0,0,0,0,0,0,0,0,0,0,0,0,0,0,0,0,0,0,0,0,0,0,0,0,0,0,0,0,0,0,0,0,0,0,0,0,0,0,0,0,0,0,0,0,0,0,0],"sum_hessian":[1.37976E5,5.6584E4,8.1392E4,3.4529E4,2.2055E4,5.6595E4,2.4797E4,1.7827E4,1.6702E4,7.523E3,1.4532E4,3.348E4,2.3115E4,1.3971E4,1.0826E4,5.401E3,1.2426E4,9.655E3,7.047E3,3.215E3,4.308E3,7.518E3,7.014E3,1.7806E4,1.5674E4,9.144E3,1.3971E4,9.12E3,4.851E3,7.059E3,3.767E3,1.624E3,3.777E3,5.46E3,6.966E3,5.379E3,4.276E3,4.884E3,2.163E3,1.064E3,2.151E3,1.61E3,2.698E3,3.732E3,3.786E3,2.724E3,4.29E3,7.644E3,1.0162E4,6.995E3,8.679E3,3.817E3,5.327E3,6.477E3,7.494E3,4.314E3,4.806E3,2.704E3,2.147E3,3.273E3,3.786E3,2.674E3,1.093E3],"tree_param":{"num_deleted":"0","num_feature":"18","num_nodes":"63","size_leaf_vector":"1"}},{"base_weights":[-5.5295276E-4,-2.1061456E0,1.3063955E0,-2.786464E0,-9.8159117E-1,5.685285E-1,2.767489E0,-3.2932858E0,-2.4347422E0,-1.5623385E0,-7.332653E-1,1.3188528E-1,1.1754802E0,2.110305E0,3.691976E0,-3.7951E0,-3.1341357E0,-2.6646352E0,-2.1774564E0,-1.7424235E0,-1.3461254E0,-9.408722E-1,-5.817338E-1,-1.08554035E-1,3.8102207E-1,8.5996324E-1,1.4133815E0,1.9326016E0,2.480019E0,3.3321836E0,4.0447817E0,-2.131371E-1,-1.8484609E-1,-1.657239E-1,-1.5147129E-1,-1.3891803E-1,-1.2804912E-1,-1.163188E-1,-1.0366529E-1,-9.0262525E-2,-8.093874E-2,-7.2828926E-2,-6.353988E-2,-5.2465793E-2,-4.246972E-2,-3.34171E-2,-2.4107687E-2,-1.4977506E-2,-1.9678903E-4,1.3069428E-2,2.6826954E-2,3.8876813E-2,5.190542E-2,6.255927E-2,7.6000795E-2,8.930101E-2,1.04630865E-1,1.18113115E-1,1.3757198E-1,1.5276676E-1,1.743483E-1,1.9246422E-1,2.1365188E-1],"categories":[],"categories_nodes":[],"categories_segments":[],"categories_sizes":[],"default_left":[0,0,0,0,0,0,0,0,0,0,0,0,0,0,0,0,0,0,0,0,0,0,0,0,0,0,0,0,0,0,0,0,0,0,0,0,0,0,0,0,0,0,0,0,0,0,0,0,0,0,0,0,0,0,0,0,0,0,0,0,0,0,0],"id":22,"left_children":[1,3,5,7,9,11,13,15,17,19,21,23,25,27,29,31,33,35,37,39,41,43,45,47,49,51,53,55,57,59,61,-1,-1,-1,-1,-1,-1,-1,-1,-1,-1,-1,-1,-1,-1,-1,-1,-1,-1,-1,-1,-1,-1,-1,-1,-1,-1,-1,-1,-1,-1,-1,-1],"loss_changes":[3.796633E5,4.0421234E4,9.177214E4,5.8605E3,2.8713223E3,1.499025E4,1.73465E4,1.0649844E3,1.1439219E3,2.2991211E2,4.3843115E2,1.9707065E3,1.7752012E3,1.0922578E3,1.492875E3,1.3308984E2,1.8338281E2,1.1383594E2,1.3752734E2,2.2333008E1,2.073877E1,5.7499023E1,6.926831E1,3.345321E2,3.0046143E2,1.486167E2,2.314336E2,2.608828E2,1.6663281E2,2.4135547E2,2.5071875E2,0E0,0E0,0E0,0E0,0E0,0E0,0E0,0E0,0E0,0E0,0E0,0E0,0E0,0E0,0E0,0E0,0E0,0E0,0E0,0E0,0E0,0E0,0E0,0E0,0E0,0E0,0E0,0E0,0E0,0E0,0E0,0E0],"parents":[2147483647,0,0,1,1,2,2,3,3,4,4,5,5,6,6,7,7,8,8,9,9,10,10,11,11,12,12,13,13,14,14,15,15,16,16,17,17,18,18,19,19,20,20,21,21,22,22,23,23,24,24,25,25,26,26,27,27,28,28,29,29,30,30],"right_children":[2,4,6,8,10,12,14,16,18,20,22,24,26,28,30,32,34,36,38,40,42,44,46,48,50,52,54,56,58,60,62,-1,-1,-1,-1,-1,-1,-1,-1,-1,-1,-1,-1,-1,-1,-1,-1,-1,-1,-1,-1,-1,-1,-1,-1,-1,-1,-1,-1,-1,-1,-1,-1],"split_conditions":[3.66845E1,3.189E1,4.3005295E1,2.89395E1,3.430937E1,3.98653E1,4.6669823E1,2.6961615E1,3.03625E1,3.3004826E1,3.551293E1,3.825034E1,4.13495E1,4.476209E1,4.9250385E1,2.5363214E1,2.808E1,2.96182E1,3.106025E1,3.2446465E1,3.3560623E1,3.491711E1,3.60926E1,3.741005E1,3.9186707E1,4.0771065E1,4.213285E1,4.38667E1,4.5689724E1,4.8002537E1,5.037054E1,-2.131371E-1,-1.8484609E-1,-1.657239E-1,-1.5147129E-1,-1.3891803E-1,-1.2804912E-1,-1.163188E-1,-1.0366529E-1,-9.0262525E-2,-8.093874E-2,-7.2828926E-2,-6.353988E-2,-5.2465793E-2,-4.246972E-2,-3.34171E-2,-2.4107687E-2,-1.4977506E-2,-1.9678903E-4,1.3069428E-2,2.6826954E-2,3.8876813E-2,5.190542E-2,6.255927E-2,7.6000795E-2,8.930101E-2,1.04630865E-1,1.18113115E-1,1.3757198E-1,1.5276676E-1,1.743483E-1,1.9246422E-1,2.1365188E-1],"split_indices":[4,4,4,4,4,4,6,4,4,6,4,4,4,4,4,6,4,4,4,6,4,4,4,4,4,4,4,4,4,4,4,0,0,0,0,0,0,0,0,0,0,0,0,0,0,0,0,0,0,0,0,0,0,0,0,0,0,0,0,0,0,0,0],"split_type":[0,0,0,0,0,0,0,0,0,0,0,0,0,0,0,0,0,0,0,0,0,0,0,0,0,0,0,0,0,0,0,0,0,0,0,0,0,0,0,0,0,0,0,0,0,0,0,0,0,0,0,0,0,0,0,0,0,0,0,0,0,0,0],"sum_hessian":[1.37962E5,5.2837E4,8.5125E4,3.292E4,1.9917E4,5.6562E4,2.8563E4,1.3483E4,1.9437E4,5.964E3,1.3953E4,3.2897E4,2.3665E4,1.6697E4,1.1866E4,3.241E3,1.0242E4,1.026E4,9.177E3,3.25E3,2.714E3,5.885E3,8.068E3,1.6741E4,1.6156E4,1.0175E4,1.349E4,1.1281E4,5.416E3,5.88E3,5.986E3,5.55E2,2.686E3,3.751E3,6.491E3,4.88E3,5.38E3,3.768E3,5.409E3,2.146E3,1.104E3,1.093E3,1.621E3,2.688E3,3.197E3,4.312E3,3.756E3,5.924E3,1.0817E4,9.133E3,7.023E3,6.96E3,3.215E3,5.356E3,8.134E3,5.894E3,5.387E3,3.784E3,1.632E3,2.116E3,3.764E3,3.234E3,2.752E3],"tree_param":{"num_deleted":"0","num_feature":"18","num_nodes":"63","size_leaf_vector":"1"}},{"base_weights":[3.7804882E-3,-1.8900603E0,1.3120265E0,-2.6493413E0,-8.3794916E-1,6.421382E-1,2.7113295E0,-3.148021E0,-2.3240838E0,-1.3872632E0,-5.822636E-1,2.322042E-1,1.2277043E0,2.0885398E0,3.538615E0,-3.6652758E0,-3.0127437E0,-2.5389793E0,-2.0716236E0,-1.6145258E0,-1.15933E0,-7.630579E-1,-4.2120796E-1,2.295144E-2,4.901228E-1,9.3752086E-1,1.424336E0,1.9116704E0,2.4603975E0,3.202116E0,3.8429222E0,-2.030959E-1,-1.7816241E-1,-1.5987863E-1,-1.4529935E-1,-1.3226746E-1,-1.2159095E-1,-1.10684775E-1,-9.84895E-2,-8.52589E-2,-7.4608356E-2,-6.417883E-2,-5.3206723E-2,-4.363446E-2,-3.4019407E-2,-2.5922919E-2,-1.8065728E-2,-5.645444E-3,5.6274734E-3,1.752523E-2,3.0035043E-2,4.0503588E-2,5.2394506E-2,6.489805E-2,7.703578E-2,8.758471E-2,1.0136118E-1,1.146997E-1,1.3292764E-1,1.4619672E-1,1.660183E-1,1.808847E-1,2.013967E-1],"categories":[],"categories_nodes":[],"categories_segments":[],"categories_sizes":[],"default_left":[0,0,0,0,0,0,0,0,0,0,0,0,0,0,0,0,0,0,0,0,0,0,0,0,0,0,0,0,0,0,0,0,0,0,0,0,0,0,0,0,0,0,0,0,0,0,0,0,0,0,0,0,0,0,0,0,0,0,0,0,0,0,0],"id":23,"left_children":[1,3,5,7,9,11,13,15,17,19,21,23,25,27,29,31,33,35,37,39,41,43,45,47,49,51,53,55,57,59,61,-1,-1,-1,-1,-1,-1,-1,-1,-1,-1,-1,-1,-1,-1,-1,-1,-1,-1,-1,-1,-1,-1,-1,-1,-1,-1,-1,-1,-1,-1,-1,-1],"loss_changes":[3.4308453E5,4.519261E4,7.676847E4,5.322547E3,3.3301445E3,1.3294766E4,1.3653281E4,8.964375E2,1.0739297E3,3.8829102E2,4.7095264E2,1.7583374E3,1.3000156E3,9.903281E2,1.1536094E3,9.414453E1,1.9366406E2,1.1599219E2,1.2804688E2,3.926172E1,4.315332E1,6.850391E1,4.968347E1,2.1897733E2,2.2508618E2,1.2877246E2,1.9791797E2,1.8605469E2,1.5458203E2,1.6835547E2,2.3436719E2,0E0,0E0,0E0,0E0,0E0,0E0,0E0,0E0,0E0,0E0,0E0,0E0,0E0,0E0,0E0,0E0,0E0,0E0,0E0,0E0,0E0,0E0,0E0,0E0,0E0,0E0,0E0,0E0,0E0,0E0,0E0,0E0],"parents":[2147483647,0,0,1,1,2,2,3,3,4,4,5,5,6,6,7,7,8,8,9,9,10,10,11,11,12,12,13,13,14,14,15,15,16,16,17,17,18,18,19,19,20,20,21,21,22,22,23,23,24,24,25,25,26,26,27,27,28,28,29,29,30,30],"right_children":[2,4,6,8,10,12,14,16,18,20,22,24,26,28,30,32,34,36,38,40,42,44,46,48,50,52,54,56,58,60,62,-1,-1,-1,-1,-1,-1,-1,-1,-1,-1,-1,-1,-1,-1,-1,-1,-1,-1,-1,-1,-1,-1,-1,-1,-1,-1,-1,-1,-1,-1,-1,-1],"split_conditions":[3.721E1,3.1896683E1,4.325E1,2.886551E1,3.4701595E1,4.02E1,4.710146E1,2.6852081E1,3.0354652E1,3.3402405E1,3.592495E1,3.8617012E1,4.1671173E1,4.495E1,4.9256252E1,2.555E1,2.8E1,2.9618643E1,3.106248E1,3.264091E1,3.4060833E1,3.537E1,3.644E1,3.7811172E1,3.94E1,4.0892563E1,4.2480724E1,4.3996094E1,4.57E1,4.799273E1,5.009007E1,-2.030959E-1,-1.7816241E-1,-1.5987863E-1,-1.4529935E-1,-1.3226746E-1,-1.2159095E-1,-1.10684775E-1,-9.84895E-2,-8.52589E-2,-7.4608356E-2,-6.417883E-2,-5.3206723E-2,-4.363446E-2,-3.4019407E-2,-2.5922919E-2,-1.8065728E-2,-5.645444E-3,5.6274734E-3,1.752523E-2,3.0035043E-2,4.0503588E-2,5.2394506E-2,6.489805E-2,7.703578E-2,8.758471E-2,1.0136118E-1,1.146997E-1,1.3292764E-1,1.4619672E-1,1.660183E-1,1.808847E-1,2.013967E-1],"split_indices":[2,2,2,2,2,2,4,2,2,2,2,2,2,2,2,2,2,2,2,2,2,2,2,2,2,2,2,2,2,2,2,0,0,0,0,0,0,0,0,0,0,0,0,0,0,0,0,0,0,0,0,0,0,0,0,0,0,0,0,0,0,0,0],"split_type":[0,0,0,0,0,0,0,0,0,0,0,0,0,0,0,0,0,0,0,0,0,0,0,0,0,0,0,0,0,0,0,0,0,0,0,0,0,0,0,0,0,0,0,0,0,0,0,0,0,0,0,0,0,0,0,0,0,0,0,0,0,0,0],"sum_hessian":[1.38472E5,5.6574E4,8.1898E4,3.2859E4,2.3715E4,5.5385E4,2.6513E4,1.2968E4,1.9891E4,7.531E3,1.6184E4,3.2579E4,2.2806E4,1.5128E4,1.1385E4,2.683E3,1.0285E4,1.074E4,9.151E3,3.768E3,3.763E3,7.623E3,8.561E3,1.7987E4,1.4592E4,9.214E3,1.3592E4,1.0256E4,4.872E3,5.412E3,5.973E3,5.41E2,2.142E3,3.755E3,6.53E3,5.378E3,5.362E3,3.812E3,5.339E3,2.157E3,1.611E3,1.627E3,2.136E3,3.273E3,4.35E3,3.26E3,5.301E3,7.148E3,1.0839E4,6.451E3,8.141E3,4.28E3,4.934E3,6.522E3,7.07E3,4.308E3,5.948E3,2.655E3,2.217E3,1.622E3,3.79E3,2.703E3,3.27E3],"tree_param":{"num_deleted":"0","num_feature":"18","num_nodes":"63","size_leaf_vector":"1"}},{"base_weights":[2.0992244E-3,-1.777768E0,1.2585316E0,-2.459348E0,-7.0178694E-1,6.7741895E-1,2.7091525E0,-2.9020553E0,-2.081532E0,-1.1052779E0,-4.9373546E-1,2.7154353E-1,1.2806555E0,2.1329105E0,3.4295833E0,-3.3397393E0,-2.7438447E0,-2.2822568E0,-1.815265E0,-1.3191904E0,-9.395691E-1,-6.3890195E-1,-3.5958853E-1,7.717588E-2,5.700158E-1,1.0693351E0,1.5020006E0,1.9614905E0,2.5466356E0,3.2194655E0,3.7852473E0,-1.8498336E-1,-1.6123965E-1,-1.4541405E-1,-1.3142484E-1,-1.2013785E-1,-1.07996754E-1,-9.5731646E-2,-8.320645E-2,-7.0919566E-2,-6.0977526E-2,-5.0625082E-2,-4.3285612E-2,-3.5338607E-2,-2.7953044E-2,-2.0620072E-2,-1.5354814E-2,-1.3280808E-3,1.1395652E-2,2.3933753E-2,3.4308907E-2,4.7062676E-2,5.9969157E-2,7.0909396E-2,8.0719315E-2,9.361922E-2,1.0614699E-1,1.1868562E-1,1.3390057E-1,1.5287513E-1,1.6903171E-1,1.8374327E-1,2.0273255E-1],"categories":[],"categories_nodes":[],"categories_segments":[],"categories_sizes":[],"default_left":[0,0,0,0,0,0,0,0,0,0,0,0,0,0,0,0,0,0,0,0,0,0,0,0,0,0,0,0,0,0,0,0,0,0,0,0,0,0,0,0,0,0,0,0,0,0,0,0,0,0,0,0,0,0,0,0,0,0,0,0,0,0,0],"id":24,"left_children":[1,3,5,7,9,11,13,15,17,19,21,23,25,27,29,31,33,35,37,39,41,43,45,47,49,51,53,55,57,59,61,-1,-1,-1,-1,-1,-1,-1,-1,-1,-1,-1,-1,-1,-1,-1,-1,-1,-1,-1,-1,-1,-1,-1,-1,-1,-1,-1,-1,-1,-1,-1,-1],"loss_changes":[3.090722E5,4.194028E4,6.829341E4,5.8501406E3,1.8613975E3,1.4162602E4,9.612359E3,1.107E3,1.0056719E3,2.6620898E2,2.8478662E2,2.0061157E3,1.0866523E3,9.082461E2,7.572578E2,1.649375E2,2.1702344E2,1.5354297E2,1.1884961E2,3.0799805E1,2.2043701E1,3.7688477E1,2.096753E1,3.275094E2,1.4437549E2,1.971875E2,1.0472461E2,1.2707031E2,7.9265625E1,1.5878125E2,9.863281E1,0E0,0E0,0E0,0E0,0E0,0E0,0E0,0E0,0E0,0E0,0E0,0E0,0E0,0E0,0E0,0E0,0E0,0E0,0E0,0E0,0E0,0E0,0E0,0E0,0E0,0E0,0E0,0E0,0E0,0E0,0E0,0E0],"parents":[2147483647,0,0,1,1,2,2,3,3,4,4,5,5,6,6,7,7,8,8,9,9,10,10,11,11,12,12,13,13,14,14,15,15,16,16,17,17,18,18,19,19,20,20,21,21,22,22,23,23,24,24,25,25,26,26,27,27,28,28,29,29,30,30],"right_children":[2,4,6,8,10,12,14,16,18,20,22,24,26,28,30,32,34,36,38,40,42,44,46,48,50,52,54,56,58,60,62,-1,-1,-1,-1,-1,-1,-1,-1,-1,-1,-1,-1,-1,-1,-1,-1,-1,-1,-1,-1,-1,-1,-1,-1,-1,-1,-1,-1,-1,-1,-1,-1],"split_conditions":[3.726821E1,3.264091E1,4.3762115E1,2.93E1,3.52E1,4.0574062E1,4.777E1,2.7603836E1,3.096E1,3.4060833E1,3.6163593E1,3.9135468E1,4.2327805E1,4.544E1,4.992E1,2.6087484E1,2.8351978E1,2.9985594E1,3.17E1,3.3402405E1,3.4701595E1,3.573E1,3.6767906E1,3.825E1,3.986714E1,4.158E1,4.305692E1,4.4763412E1,4.66E1,4.8917484E1,5.106534E1,-1.8498336E-1,-1.6123965E-1,-1.4541405E-1,-1.3142484E-1,-1.2013785E-1,-1.07996754E-1,-9.5731646E-2,-8.320645E-2,-7.0919566E-2,-6.0977526E-2,-5.0625082E-2,-4.3285612E-2,-3.5338607E-2,-2.7953044E-2,-2.0620072E-2,-1.5354814E-2,-1.3280808E-3,1.1395652E-2,2.3933753E-2,3.4308907E-2,4.7062676E-2,5.9969157E-2,7.0909396E-2,8.0719315E-2,9.361922E-2,1.0614699E-1,1.1868562E-1,1.3390057E-1,1.5287513E-1,1.6903171E-1,1.8374327E-1,2.0273255E-1],"split_indices":[2,2,2,2,2,2,2,5,2,2,2,2,2,2,2,6,2,2,2,2,2,2,2,2,2,2,2,2,2,2,2,0,0,0,0,0,0,0,0,0,0,0,0,0,0,0,0,0,0,0,0,0,0,0,0,0,0,0,0,0,0,0,0],"split_type":[0,0,0,0,0,0,0,0,0,0,0,0,0,0,0,0,0,0,0,0,0,0,0,0,0,0,0,0,0,0,0,0,0,0,0,0,0,0,0,0,0,0,0,0,0,0,0,0,0,0,0,0,0,0,0,0,0,0,0,0,0,0,0],"sum_hessian":[1.38206E5,5.719E4,8.1016E4,3.5011E4,2.2179E4,5.7845E4,2.3171E4,1.6118E4,1.8893E4,7.544E3,1.4635E4,3.458E4,2.3265E4,1.2876E4,1.0295E4,4.274E3,1.1844E4,1.0768E4,8.125E3,3.29E3,4.254E3,7.027E3,7.608E3,2.0943E4,1.3637E4,1.1905E4,1.136E4,9.108E3,3.768E3,6.478E3,3.817E3,1.027E3,3.247E3,4.873E3,6.971E3,5.415E3,5.353E3,4.895E3,3.23E3,1.642E3,1.648E3,2.134E3,2.12E3,3.794E3,3.233E3,3.789E3,3.819E3,1.2406E4,8.537E3,7.637E3,6E3,6.002E3,5.903E3,6.515E3,4.845E3,5.877E3,3.231E3,1.635E3,2.133E3,3.241E3,3.237E3,2.718E3,1.099E3],"tree_param":{"num_deleted":"0","num_feature":"18","num_nodes":"63","size_leaf_vector":"1"}},{"base_weights":[-9.069703E-4,-1.7329328E0,1.1682572E0,-2.3923316E0,-7.7616113E-1,5.464861E-1,2.4095888E0,-2.8439574E0,-2.0973322E0,-1.2780498E0,-5.544938E-1,1.7197993E-1,1.0569786E0,1.8371615E0,3.1659765E0,-3.310723E0,-2.7199388E0,-2.2913516E0,-1.8676472E0,-1.4873962E0,-1.0996933E0,-7.2660154E-1,-4.1319323E-1,-2.2887247E-2,3.881894E-1,8.1613386E-1,1.2668453E0,1.6802458E0,2.1332707E0,2.8250995E0,3.446625E0,-1.8324839E-1,-1.6087866E-1,-1.44168E-1,-1.3117741E-1,-1.1884433E-1,-1.0926844E-1,-9.846593E-2,-8.763986E-2,-7.6841086E-2,